
\data\
ngram 1=5957
ngram 2=36133

\1-grams:
-4.932672	'em
-1.794521	</s>
-99	<s>	-0.9228995
-2.24239	a	-0.6441342
-5.797112	abbreviate	-0.6973661
-5.797112	abdomen
-5.402909	abides
-4.347187	ability	-0.3107514
-3.668177	able	-1.294317
-5.797112	ably
-4.823761	abolish	-0.2222179
-5.402909	aborigine
-5.402909	aborigines
-2.518033	about	-0.7989988
-3.124631	above	-0.5721971
-3.642049	abruptly	-0.4824037
-5.797112	absences
-3.9154	absent	-0.2582292
-4.088477	absolute	-0.1288223
-5.299247	absolution
-3.993373	absorbed	-0.4120679
-5.078379	absorption
-3.791976	absurd	-0.306392
-4.664312	absurdly	-0.06850276
-4.823761	abyss	-0.08247397
-4.823761	academic	-0.4236554
-5.797112	accelerating
-5.797112	accelerometer	-0.1831321
-5.797112	accelerometers
-4.18757	accent	-0.2432173
-3.965797	accept	-0.4290988
-4.73676	acceptance	-0.1450856
-3.849318	accepted	-0.3587888
-4.602241	access	-0.3409349
-3.791976	accident	-0.3420014
-5.797112	acclaim
-5.402909	acclaimed
-4.664312	accommodate	-0.1580542
-4.347187	accomplish	-0.2233885
-3.829351	accomplished	-0.2084466
-4.456253	accomplishments	-0.1302556
-3.629552	according	-1.440703
-3.733434	accordingly	-0.3472737
-3.566591	account	-0.6466893
-3.9154	accounts	-0.3761273
-4.664312	accuracy	-0.3509168
-4.416775	accurate	-0.1785603
-5.299247	accusations	-0.1620754
-4.234545	accuse	-0.3932396
-4.932672	accusingly	-0.3922343
-4.932672	ace	-0.09374258
-4.73676	aches	-0.1962733
-4.73676	achieve	-0.09010291
-4.416775	achieved	-0.145896
-4.287224	acknowledge	-0.2770308
-4.071109	acknowledged	-0.3064083
-4.547941	acquiescence	-0.4294217
-4.73676	acquire
-4.287224	acres	-0.4337283
-3.223709	across	-0.7584061
-3.561295	act	-0.3593805
-3.718062	action	-0.4210481
-4.125447	actions	-0.3524882
-5.797112	activated	-0.1831321
-5.299247	activities	-0.5683255
-4.16586	activity	-0.2275661
-4.456253	actor	-0.3510186
-4.823761	actors	-0.1415305
-4.054409	acts	-0.2292416
-4.260086	actual	-0.01432654
-3.703215	actually	-0.0435576
-5.299247	adage
-5.797112	adaptations
-3.979366	add	-0.4383184
-3.521105	added	-0.3943971
-4.287224	addition	-0.3929948
-3.819701	address	-0.3411123
-3.757564	addressed	-0.4815537
-4.499681	adequate	-0.1767519
-5.797112	adhesive
-4.73676	adjourned	-0.3282893
-5.797112	adjustable
-5.078379	adjustments
-4.547941	administration	-0.1830141
-5.299247	administrative
-3.979366	admire	-0.3790106
-3.695977	admitted	-0.3934915
-4.602241	admitting	-0.07323733
-4.287224	adopted	-0.1639629
-5.797112	adult	-0.7012137
-5.797112	adulterers
-4.823761	adults
-3.870248	advance	-0.251969
-3.733434	advanced	-0.3703367
-4.416775	advances	-0.3532139
-3.801023	advantage	-0.5830241
-3.993373	advantages	-0.2478341
-3.774429	adventure	-0.3142842
-3.9154	adventures	-0.3211612
-4.499681	advertising	-0.2495402
-3.74133	advice	-0.5046741
-4.664312	advisable	-0.2268886
-3.952639	advised	-0.3700661
-5.797112	advisement
-5.299247	aerial	-0.05290006
-4.380589	affect	-0.1118583
-4.145184	affectionate	-0.2000811
-5.078379	affirmative	-0.4936707
-4.456253	afloat	-0.1039267
-3.516332	afraid	-0.7613695
-2.629908	after	-0.9277609
-3.718062	afternoon	-0.5274289
-3.28604	afterwards	-0.4741746
-2.544049	again	-0.7709849
-2.946943	against	-0.8269653
-3.629552	age	-0.4154701
-4.416775	agency	-0.3853707
-5.797112	agenda
-4.932672	agents
-5.797112	agglomeration
-4.73676	aggressive	-0.2222107
-5.078379	aglow	-0.1660137
-4.071109	ago	-0.4953404
-3.979366	agony	-0.3664857
-3.881103	agree	-0.7160338
-3.611456	agreed	-0.6626947
-5.078379	agricultural
-5.797112	ahah
-3.342634	ahead	-0.5549324
-3.829351	aid	-0.4194294
-5.299247	aided
-5.299247	aids
-4.007847	aim	-0.3502749
-4.499681	aimed	-0.2386392
-4.823761	aimless	-0.02563525
-5.078379	ain't	-0.03905968
-3.349044	air	-0.4563915
-5.402909	airborne
-5.299247	aircraft
-5.402909	airfields
-5.402909	airplanes
-4.547941	al	-0.3075666
-3.83922	alarm	-0.314912
-4.316171	alcohol	-0.2640445
-5.078379	alcoholic	-0.08197547
-5.797112	alcoholics
-5.402909	alcoves
-4.287224	alert	-0.1679605
-5.299247	alfalfa	-0.4213559
-5.797112	algae
-5.402909	algebraic	-0.5240591
-5.078379	alibi
-3.393187	alice	-0.3252973
-4.932672	alien	-0.2451057
-5.078379	alimony	-0.5241928
-5.797112	alkaline
-2.446584	all	-0.5908542
-5.797112	allergies	-0.1831306
-5.299247	alleviate	-0.3095531
-5.402909	alligators
-3.870248	allow	-0.4766313
-4.823761	allowable
-4.02282	allowance	-0.3992141
-3.829351	allowed	-0.4528709
-5.402909	allure
-5.299247	almonds
-3.014635	almost	-0.245714
-2.958611	alone	-0.6236726
-3.105787	along	-0.48368
-3.642049	aloud	-0.5429951
-3.124631	already	-0.3060029
-2.981544	also	-0.2831919
-5.402909	alternated
-4.287224	alternative	-0.3226485
-3.434398	although	-0.4431467
-3.375674	altogether	-0.323946
-5.299247	aluminum
-5.797112	alumni
-3.013143	always	-0.2783151
-3.479934	am	-0.4013261
-4.73676	amateur	-0.0702245
-4.932672	amaze	-0.2707434
-3.849318	amazed	-0.3420406
-4.932672	ambassador	-0.407294
-5.797112	ambassador's
-4.932672	amber	-0.106264
-5.797112	ambidextrous	-0.7012368
-5.078379	ambiguity
-4.664312	ambiguous	-0.1737691
-4.416775	ambitions	-0.04593473
-4.210423	ambitious	-0.2066334
-5.299247	ambled
-5.299247	ambulance	-0.2710866
-3.829351	american	-0.1577942
-5.797112	amoebas	-0.7010416
-3.032955	among	-0.7721779
-3.9154	amount	-0.5489741
-4.316171	amounts	-0.7685517
-4.499681	ample	-0.2384229
-2.705099	an	-0.7255615
-5.797112	anaesthesia
-4.456253	analysis	-0.2385729
-5.797112	analyticity
-5.078379	anarchy
-5.797112	anatomical
-4.287224	anchor	-0.1052643
-3.993373	ancient	-0.1589495
-1.978312	and	-0.390037
-5.797112	andrei's
-5.797112	anecdotal	-0.7011601
-3.810261	anger	-0.3118637
-5.797112	angora	-0.7011847
-3.623436	angrily	-0.7023003
-3.571952	angry	-0.4849867
-5.078379	angular	-0.03905968
-3.72568	animal	-0.1459048
-3.74133	animals	-0.2420625
-4.456253	ankle	-0.1915578
-4.73676	announcing
-4.316171	annoying	-0.2870632
-4.73676	annual	-0.03869688
-4.823761	anonymous	-0.09729152
-2.91371	another	-0.318527
-3.3179	answer	-0.5720707
-3.19788	answered	-0.5050206
-3.849318	answers	-0.2770095
-4.932672	ant	-0.03094845
-5.299247	antagonistic	-0.4236777
-5.797112	antarctic
-4.547941	antelope	-0.2008367
-5.797112	anti-slavery
-4.347187	anticipated	-0.2621809
-5.797112	antigen
-5.402909	antiseptic
-5.402909	antithesis
-4.823761	ants	-0.1341254
-3.881103	anxiety	-0.3049527
-2.747409	any	-0.4986198
-3.411436	anybody	-0.3440904
-3.345827	anyhow	-0.7035303
-3.535744	anyone	-0.2773266
-5.797112	anyone's	-0.7011226
-2.991351	anything	-0.6158679
-3.426609	anyway	-0.7186325
-4.287224	apartments	-0.1839695
-4.260086	apology	-0.3169268
-3.605588	apparently	-0.1391645
-4.234545	appealing	-0.2477434
-3.710575	appear	-0.4499894
-3.654917	appearance	-0.5015047
-3.218897	appeared	-0.5629368
-3.892237	appears	-0.3889842
-4.071109	appetite	-0.3097987
-4.602241	appetites	-0.1104635
-4.088477	apple	-0.2167442
-4.054409	apples	-0.3296212
-4.932672	appliances	-0.3916332
-4.260086	application	-0.2307417
-4.932672	applications
-4.054409	applied	-0.232276
-4.664312	applies	-0.4200067
-4.071109	apply	-0.2925647
-4.547941	applying	-0.1374633
-4.125447	appointed	-0.2615121
-4.210423	appointment	-0.3148039
-5.797112	appraisal
-4.125447	appreciate	-0.2450036
-4.18757	appreciated	-0.3912584
-4.823761	appreciatively	-0.3922343
-3.859657	approach	-0.3722665
-3.757564	approached	-0.4723268
-4.145184	appropriate	-0.191566
-4.602241	approval	-0.3282893
-4.18757	approved	-0.4410888
-4.416775	approvingly	-0.6827704
-5.797112	approximation
-5.078379	aprons	-0.3095705
-4.932672	aptitude	-0.4657691
-5.402909	aquatic	-0.524182
-4.664312	arbitrary	-0.2533305
-5.402909	arbitrate
-5.402909	arboreal
-5.797112	arc
-5.797112	arcade
-5.797112	archeological	-0.7012194
-2.605341	are	-0.5023906
-4.664312	area	-0.09936332
-5.299247	areas
-5.402909	aren't
-4.260086	argue	-0.2349397
-4.316171	argued	-0.1268563
-3.903664	argument	-0.2845577
-4.18757	arise	-0.3607625
-4.547941	arises	-0.1047126
-4.499681	aristocratic	-0.08514869
-3.681855	arm	-0.4336872
-4.664312	armchair	-0.1104635
-3.952639	armed	-0.2875459
-3.571952	arms	-0.5204071
-4.071109	army	-0.3241396
-3.668177	arose	-0.3790086
-3.053715	around	-0.7176536
-4.106569	arrange	-0.2401872
-3.810261	arranged	-0.3654285
-4.316171	arrival	-0.3004396
-4.071109	arrive	-0.3770217
-3.530809	arrived	-0.5090742
-4.547941	arriving	-0.2288453
-3.488751	art	-0.3204547
-3.903664	article	-0.3424324
-5.402909	articulation
-4.347187	artificial	-0.05641742
-4.054409	artist	-0.3008581
-4.347187	artistic	-0.03440948
-4.145184	artists	-0.3587383
-2.196872	as	-0.8421187
-3.765915	ashamed	-0.8589194
-5.797112	ashtray	-0.7012237
-3.648435	aside	-0.402205
-3.530809	ask	-0.6851758
-3.246048	asked	-0.5257878
-3.566591	asleep	-0.559671
-4.02282	aspect	-0.4311277
-4.416775	aspects	-0.2742534
-5.299247	assail	-0.1621102
-4.73676	assassin	-0.449282
-5.078379	assaults
-4.287224	assembled	-0.1242776
-4.932672	assembling
-4.547941	assert	-0.1139551
-5.078379	assign
-5.402909	assignment
-3.939868	assistance	-0.4389381
-4.456253	assistant	-0.1433006
-4.316171	associated	-0.3470187
-4.73676	associates	-0.2033506
-4.347187	associations	-0.2353607
-4.380589	assume	-0.2063785
-3.979366	assumed	-0.09061921
-4.260086	assure	-0.9273091
-3.791976	assured	-0.5678638
-4.234545	assuredly	-0.07660165
-5.078379	assures	-0.1672242
-4.547941	assuring	-0.1451769
-5.299247	asthma	-0.05290154
-4.73676	astonishingly
-4.932672	astronomy	-0.1613963
-2.243908	at	-1.333963
-3.801023	ate	-0.2192088
-5.402909	atheists	-0.5203286
-4.823761	athletic	-0.2451375
-4.071109	atmosphere	-0.3111303
-5.299247	atomic
-5.402909	atoms
-5.402909	atop
-4.602241	attach	-0.2471844
-3.810261	attack	-0.2819573
-4.038327	attacked	-0.353795
-3.939868	attempted	-0.6228981
-4.287224	attendance	-0.3700426
-4.416775	attendants	-0.1005415
-3.681855	attention	-0.602341
-3.881103	attitude	-0.3367502
-3.927461	attracted	-0.2317696
-3.993373	attractive	-0.2609902
-4.823761	attributed	-0.3108622
-5.797112	atypical	-0.7012107
-5.078379	auburn	-0.3571526
-4.007847	audience	-0.2139205
-5.797112	audio-visual	-0.701205
-4.932672	auditors	-0.2405776
-5.402909	auditory	-0.5241983
-4.932672	augmented
-3.506943	aunt	-0.3762078
-5.078379	austere
-4.234545	author	-0.4440854
-5.797112	author's
-4.234545	authorities	-0.1160365
-3.774429	authority	-0.2994255
-5.402909	authorization	-0.5207281
-4.932672	authorized
-5.797112	autofluorescence
-5.402909	autographs	-0.7522025
-4.602241	automatic	-0.1476102
-4.499681	automobile	-0.1839695
-5.797112	autonomy
-4.054409	autumn	-0.2273719
-4.456253	available	-0.3925597
-5.078379	avalanche	-0.3572668
-4.18757	average	-0.1900233
-5.797112	avocado
-5.797112	avocados
-4.125447	avoid	-0.2455318
-4.088477	avoided	-0.2137453
-4.347187	avoiding	-0.1068646
-4.602241	avowed	-0.09114818
-5.299247	aw
-5.797112	awards
-3.927461	aware	-0.8086333
-2.826023	away	-0.7285738
-4.347187	awe	-0.3328513
-3.892237	awkward	-0.2698125
-3.927461	awoke	-0.3647687
-5.402909	axis	-0.7522025
-5.402909	babbled
-5.797112	baboon's	-0.7011645
-2.865531	back	-0.7331536
-4.145184	backed	-0.2220858
-5.299247	backgrounds	-0.3262337
-3.859657	backward	-0.4488273
-5.797112	backyards
-5.402909	bacteria
-3.233496	bad	-0.3642065
-4.823761	badness	-0.1642559
-5.797112	baffle
-3.903664	bag	-0.5024873
-5.402909	bagpipes	-0.4191063
-4.18757	bags	-0.3475909
-5.078379	bake
-4.347187	balance	-0.3994662
-5.078379	bale	-0.109819
-5.299247	baleful	-0.05290006
-3.791976	ball	-0.2640272
-4.932672	ballet	-0.1518613
-5.797112	ballets
-4.547941	balloons	-0.1962733
-5.797112	ballplayer
-4.16586	balls	-0.2644859
-5.797112	ballyhoo
-4.602241	bandaged	-0.161718
-5.299247	bandages
-3.774429	bank	-0.3474136
-4.73676	bankers	-0.2286807
-4.287224	banks	-0.2301216
-5.402909	barb
-5.797112	barb's	-0.7010922
-4.932672	barbaric
-5.299247	barbecue
-4.664312	barbed	-0.5613521
-3.710575	bare	-0.1972357
-3.979366	barely	-0.1600627
-4.664312	bargains	-0.1642559
-4.125447	bark	-0.3023458
-4.73676	barley	-0.1266069
-4.260086	barn	-0.3398946
-5.797112	barometric
-5.797112	barracuda	-0.7012122
-4.602241	barrels	-0.2637666
-5.402909	barricades	-0.3075243
-5.078379	barriers
-4.106569	base	-0.1617846
-4.380589	baseball	-0.1039267
-5.797112	baseball's
-4.932672	based	-0.5230588
-5.299247	basic
-4.287224	basis	-0.2977025
-5.797112	basketball
-3.939868	bath	-0.3079953
-4.547941	bathe	-0.1130013
-4.416775	bathing
-4.316171	baths	-0.0975015
-5.797112	bathtubs
-4.456253	battery	-0.1097529
-5.797112	battery-powered	-0.1831306
-5.402909	batting
-4.18757	bay	-0.3622639
-5.402909	bayed
-5.078379	bayonet
-5.797112	bayou
-5.078379	bazaar	-0.3075243
-2.855053	be	-0.355845
-4.416775	beach	-0.2624355
-4.416775	beans	-0.2802632
-4.106569	beard	-0.3155575
-3.599798	beat	-0.4164925
-5.797112	beatniks
-3.35884	beautiful	-0.2913232
-3.965797	beautifully	-0.1849843
-3.488751	beauty	-0.4184049
-5.402909	becalmed
-3.308977	became	-0.3098801
-2.847866	because	-0.894836
-5.299247	beckons
-3.674962	become	-0.3152912
-3.952639	becomes	-0.2851653
-3.870248	becoming	-0.1158026
-3.582877	bed	-0.4769587
-4.602241	bedlam	-0.1204588
-4.145184	bedroom	-0.3814041
-4.73676	bedrooms	-0.06907077
-3.892237	beds	-0.3657378
-4.932672	beefsteak	-0.313053
-3.258974	been	-0.212921
-5.797112	beep
-3.9154	beer	-0.2450152
-5.299247	beers
-2.532568	before	-0.9246259
-3.993373	beg	-0.6663464
-3.037659	began	-0.7728758
-4.16586	beggar	-0.2618735
-3.594084	begin	-0.5596057
-3.57738	beginning	-0.7599936
-3.74133	begins	-0.5499483
-4.18757	behaved	-0.1810985
-4.499681	behavior	-0.2085272
-2.961247	behind	-0.8419083
-2.955991	being	-0.2142503
-5.797112	belched
-3.407725	believe	-0.7555175
-3.599798	believed	-0.5182729
-4.932672	bellows
-4.125447	bells	-0.2280517
-3.819701	belong	-0.9945825
-3.870248	belongs	-1.017084
-3.9154	beloved	-0.1913703
-3.323953	below	-0.5449902
-4.287224	belt	-0.2554501
-4.18757	bench	-0.3079976
-3.488751	beneath	-0.598933
-4.071109	benefit	-0.3528965
-4.456253	benefits	-0.04349732
-5.402909	bequests
-4.73676	bereft	-0.4627361
-3.27501	beside	-0.891665
-3.438346	besides	-0.4433762
-3.400395	best	-0.4152918
-4.106569	bet	-0.3390984
-4.823761	betide	-0.1642559
-3.881103	betrayed	-0.3144896
-2.962571	better	-0.4764905
-2.930624	between	-0.7581789
-5.299247	beverage	-0.4236445
-5.797112	beverages
-3.204773	beyond	-0.5384364
-5.299247	biblical	-0.4236777
-5.797112	bibliographies
-5.797112	bickering
-4.088477	bidding	-0.2830308
-3.407725	big	-0.2010389
-3.927461	bigger	-0.2861627
-5.402909	bike	-0.5240634
-3.488751	bill	-0.3694517
-5.797112	billowed
-4.125447	bills	-0.3646807
-5.797112	binomial
-5.402909	biological	-0.1831082
-5.797112	biologists	-0.7010734
-4.73676	biology	-0.3036689
-3.681855	birds	-0.2702232
-3.939868	birth	-0.3420582
-4.088477	birthday	-0.280802
-4.547941	biscuit	-0.1368657
-3.695977	bit	-0.3513303
-4.499681	bites	-0.148252
-3.801023	bitter	-0.1610786
-5.299247	bivouac
-4.932672	bizarre	-0.2078297
-3.306043	black	-0.2685178
-4.499681	blackened	-0.1337781
-3.979366	blame	-0.3863172
-4.038327	blank	-0.1276831
-4.106569	blankets	-0.2734602
-5.797112	blastdown
-5.797112	bleachers
-5.299247	blend
-5.797112	bleu	-0.7012006
-3.979366	blew	-0.1393505
-4.499681	blindness	-0.3025586
-4.73676	blissful
-4.823761	blistered	-0.2718185
-5.797112	bloat
-4.145184	block	-0.2535764
-5.299247	blockade
-4.234545	blocks	-0.04806073
-4.602241	blonde	-0.2363799
-4.73676	blooded
-5.299247	blouses
-3.617405	blow	-0.3185836
-5.797112	blowers
-4.210423	blowing	-0.04824046
-3.41518	blue	-0.3063886
-5.402909	bluejay	-0.4236156
-5.299247	blues	-0.614083
-5.299247	bluffs
-5.797112	bluing
-4.73676	bluish	-0.06919526
-4.456253	blunt	-0.07982573
-4.547941	bluntly	-0.5543604
-3.829351	board	-0.3309793
-5.402909	boardinghouses
-3.556063	boat	-0.3646182
-3.810261	bob	-0.3181597
-4.823761	bobby	-0.1036662
-5.402909	bobcat	-0.5196105
-5.299247	bodied
-4.18757	bodies	-0.2413134
-3.530809	body	-0.3523185
-4.932672	bog
-5.402909	bogged
-4.260086	boil	-0.1711004
-4.054409	boiling	-0.1974585
-3.733434	bold	-0.2889683
-4.210423	bolt	-0.155759
-4.73676	bomb	-0.1667949
-4.73676	bombs	-0.2533305
-4.038327	bone	-0.2833603
-3.9154	bones	-0.3163081
-4.823761	bonfire	-0.07222641
-5.797112	bongos	-0.7001586
-3.446351	book	-0.4120552
-3.422765	books	-0.429289
-4.823761	boom
-5.299247	boomerang
-4.823761	boost	-0.02188764
-5.797112	bootleggers
-3.819701	boots	-0.3209366
-3.903664	bored	-0.3362354
-4.547941	boring	-0.06697935
-3.710575	born	-0.4117511
-4.416775	borrow	-0.1933986
-4.02282	boss	-0.2977992
-4.416775	boston	-0.2224226
-3.048836	both	-0.2719559
-4.02282	bother	-0.3002891
-4.380589	bothers	-0.3060066
-3.939868	bottle	-0.2837693
-4.145184	bottom	-0.5361607
-3.829351	bought	-0.3234728
-4.73676	bounce	-0.01908949
-4.210423	bounded	-0.111421
-4.316171	bounds	-0.331447
-4.602241	bourgeois	-0.1962733
-4.416775	bowl	-0.3191636
-3.511612	box	-0.4295772
-3.132403	boy	-0.437944
-5.797112	boy's
-3.248602	boys	-0.326707
-4.823761	bracelet	-0.200802
-5.797112	braiding
-3.952639	brain	-0.3173525
-5.078379	brakes
-4.071109	branch	-0.2850132
-4.456253	brand	-0.05599068
-3.571952	brave	-0.3181066
-3.57738	bread	-0.3369652
-3.611456	break	-0.450088
-5.078379	breakdown	-0.3655163
-3.530809	breakfast	-0.4078006
-3.681855	breaking	-0.2850578
-4.02282	breast	-0.4773234
-3.617405	breath	-0.4430864
-3.881103	breathed	-0.2059719
-4.16586	breathlessly	-0.731356
-4.106569	breed	-0.2104844
-4.18757	breeze	-0.1809139
-4.071109	brick	-0.2705514
-4.547941	bricks	-0.09655344
-4.547941	bridal	-0.02806272
-4.054409	bride	-0.2171308
-5.797112	bride's	-0.7012368
-3.681855	bridge	-0.3733974
-4.602241	bridges	-0.187288
-4.038327	brief	-0.1465257
-3.939868	briefly	-0.256851
-3.488751	bright	-0.3183944
-4.038327	brighter	-0.2952157
-4.088477	brightly	-0.303212
-5.299247	brim
-3.52593	bring	-0.5445678
-3.939868	brings	-0.3516848
-5.299247	bristles
-5.402909	broil
-3.311931	broke	-0.7266708
-3.497752	broken	-0.3109603
-5.797112	bronc
-3.180015	brother	-0.4615467
-5.797112	brother's	-0.7011399
-3.28049	brought	-0.6419011
-3.497752	brown	-0.2149815
-4.823761	brows	-0.268526
-4.664312	bruises	-0.2233871
-4.234545	brush	-0.1546482
-5.797112	brushy	-0.1831306
-4.499681	bubbles	-0.02989065
-4.602241	buckle	-0.07841183
-5.797112	buddies
-5.797112	buddy
-5.402909	buff
-4.380589	buffalo	-0.1581035
-5.797112	bugeyed
-5.797112	bugged
-5.078379	bugle
-4.038327	build	-0.265824
-4.73676	builders	-0.09037798
-3.668177	building	-0.3488947
-4.125447	buildings	-0.259298
-3.749371	built	-0.2805526
-4.823761	bulged
-3.979366	bull	-0.2582434
-4.287224	bullet	-0.1401092
-4.347187	bullets	-0.1033826
-4.73676	bum
-4.287224	bump	-0.1861318
-5.402909	bungalow	-0.3262337
-4.823761	bunks
-4.499681	buns	-0.2431542
-5.797112	bureaucracy
-4.73676	burglar	-0.4782975
-3.83922	burn	-0.2247349
-3.718062	burned	-0.1553838
-5.402909	burner	-0.5683255
-3.733434	burning	-0.1825752
-3.561295	burst	-0.8120694
-4.02282	bursting	-0.3930759
-4.16586	bury	-0.2072174
-4.823761	bus	-0.05274554
-5.078379	bushel	-0.4556522
-3.15867	business	-0.4860744
-3.757564	busy	-0.2532905
-2.300111	but	-0.7698925
-4.416775	butcher	-0.1663839
-4.071109	butter	-0.3572956
-4.456253	butterfly	-0.1899971
-5.797112	butterscotch	-0.7012339
-5.797112	buttonholes
-4.416775	buttons	-0.1111729
-3.83922	buy	-0.3523046
-4.932672	buyer	-0.165562
-4.106569	buying	-0.1606804
-4.664312	buys
-4.602241	buzz
-4.73676	buzzing
-2.426831	by	-0.6727645
-5.797112	c'mon
-4.18757	cab	-0.2820325
-5.797112	cabinets
-4.316171	cable	-0.1598857
-4.823761	cafe	-0.1916185
-5.797112	cafeteria
-4.347187	cage	-0.2003996
-4.932672	calendar	-0.2702973
-5.402909	calendars
-4.234545	calf	-0.2753687
-4.380589	calico	-0.2724853
-3.323953	call	-0.6164517
-3.218897	called	-0.5932285
-3.488751	calling	-0.3220336
-3.791976	calls	-0.3089091
-3.561295	calm	-0.3939801
-2.699999	came	-0.8644487
-5.402909	cameo	-0.4224981
-4.73676	camera	-0.337972
-3.695977	camp	-0.3263946
-4.602241	camping	-0.2376258
-5.078379	campus	-0.2405776
-2.85817	can	-0.6930474
-5.797112	can't
-5.299247	candies	-0.5714812
-4.02282	candles	-0.3567545
-4.125447	candy	-0.2788074
-5.299247	canister
-5.078379	canned	-0.357235
-3.411436	cannot	-0.4316861
-4.499681	canoes	-0.1643079
-5.797112	cantaloupe
-5.078379	canteen	-0.3548579
-5.078379	canter	-0.1415305
-5.797112	cap'n
-3.892237	capable	-0.6976078
-5.797112	capillary
-3.819701	capital	-0.1466992
-5.299247	capitalists
-5.797112	capitalize
-5.402909	capsule
-3.277741	captain	-0.3782368
-4.16586	captured	-0.1512726
-3.791976	car	-0.258506
-5.797112	car's
-5.797112	caraway
-5.299247	cardboard
-3.810261	cards	-0.3056172
-3.434398	care	-0.7508934
-5.797112	carefree
-3.881103	careful	-0.4040951
-3.550894	carefully	-0.2740285
-3.561295	carl	-0.2265316
-3.965797	carol	-0.1560243
-4.664312	carpenter	-0.1197428
-4.088477	carpet	-0.3050807
-3.892237	carriage	-0.3312091
-3.52593	carried	-0.4978746
-4.260086	carries	-0.03855307
-3.710575	carry	-0.5288831
-3.801023	carrying	-0.1696275
-4.038327	cars	-0.2023909
-4.106569	cart	-0.2583695
-5.797112	cartoon	-0.7011818
-5.402909	cartoons	-0.5203286
-4.380589	carved	-0.03895039
-3.352285	case	-0.4759426
-3.783114	cases	-0.3072528
-3.903664	cash	-0.2639458
-5.402909	cassandra	-0.08198348
-3.561295	cast	-0.4093616
-5.078379	castor	-0.2231201
-5.797112	castorbeans
-4.73676	casual
-4.234545	casually	-0.3285025
-3.859657	cat	-0.2547874
-3.668177	catch	-0.4724482
-5.078379	categories
-5.797112	catkins
-3.9154	cats	-0.3396481
-3.870248	cattle	-0.1681959
-3.35555	caught	-0.6005462
-3.859657	caused	-0.4820596
-4.088477	causes	-0.1737694
-5.797112	causeway
-3.927461	caution	-0.2339426
-4.602241	cavity
-4.106569	cease	-0.497714
-5.797112	cease-fire
-4.602241	ceiling	-0.1914448
-4.932672	celebrate	-0.2440564
-5.402909	celebrates	-0.5210732
-5.797112	cellophane
-4.602241	cells	-0.2243021
-5.299247	cement	-0.4213559
-5.402909	censorship
-5.797112	census
-4.316171	cent	-0.4716219
-5.078379	centered	-0.1140708
-5.797112	centering
-4.347187	central	-0.1792774
-4.499681	centre	-0.4704658
-4.106569	cents	-0.4018419
-4.125447	centuries	-0.2067752
-4.260086	century	-0.2583916
-5.402909	cereal
-5.402909	cerebral	-0.08198199
-3.467034	certain	-0.2583396
-3.2945	certainly	-0.326634
-5.797112	chablis
-4.316171	chain	-0.2691238
-3.688859	chair	-0.4321497
-3.952639	chairs	-0.3324797
-4.18757	challenge	-0.3463478
-4.456253	challenged	-0.2652504
-3.927461	chamber	-0.4082271
-3.48432	chance	-0.5443487
-3.345827	change	-0.4744624
-3.393187	changed	-0.3969409
-3.810261	changes	-0.2376366
-3.903664	changing	-0.1662459
-4.316171	chaos	-0.2990298
-3.561295	character	-0.4819877
-4.416775	characteristics	-0.1449927
-4.02282	characters	-0.3044839
-3.749371	charge	-0.3581919
-4.088477	charged	-0.3117223
-3.849318	charm	-0.3758411
-4.823761	charmer	-0.4933132
-4.932672	chart	-0.2286807
-5.299247	chases	-0.3572147
-4.602241	chasing	-0.03821372
-4.932672	chastity	-0.1348947
-4.234545	chattering	-0.2553359
-4.823761	chauffeur	-0.2422294
-5.797112	chauffeur-driven
-5.402909	chaw
-3.859657	cheap	-0.349418
-4.73676	cheating	-0.3282893
-4.145184	check	-0.2507575
-4.02282	checked	-0.4174559
-4.071109	cheek	-0.3369278
-4.071109	cheese	-0.4751289
-4.823761	chemical	-0.06668893
-4.932672	chemicals	-0.3085068
-4.16586	chest	-0.3096818
-4.73676	chestnuts
-4.73676	chests	-0.06907077
-4.823761	chew	-0.2199208
-4.007847	chicken	-0.3126378
-3.892237	chief	-0.2295432
-4.088477	chiefly	-0.1183149
-3.130447	child	-0.4579943
-4.071109	childhood	-0.3016046
-3.251172	children	-0.3940942
-4.145184	chilled	-0.1596758
-5.299247	chills
-4.73676	chip	-0.134889
-5.797112	chipper	-0.6995206
-5.797112	chives	-0.6988976
-5.078379	chloride	-0.3572668
-5.797112	chlorine	-0.696648
-4.499681	chocolate	-0.3704446
-4.932672	choices	-0.3049962
-5.402909	choir
-4.456253	choke	-0.06977676
-3.870248	choose	-0.4199104
-4.380589	choosing	-0.257715
-4.210423	chop	-0.258177
-4.547941	chopped	-0.0490443
-5.797112	choreographer
-5.402909	chortled	-0.08197766
-5.299247	chorused	-0.1911882
-4.145184	chose	-0.4199288
-3.979366	chosen	-0.1584341
-5.797112	chrome
-5.797112	chroniclers
-5.402909	chronological	-0.759064
-5.797112	chronologically
-4.210423	chuck	-0.2746115
-4.347187	chuckled	-0.3971402
-3.774429	church	-0.356917
-4.347187	cigar	-0.3116941
-4.416775	cigarette	-0.3404189
-4.380589	cigarettes	-0.2963257
-4.932672	cinch
-5.797112	cinematic
-3.870248	circle	-0.32445
-4.73676	circled
-3.530809	circumstances	-0.38881
-4.18757	citizen	-0.3127764
-4.823761	citizenship	-0.3403472
-3.661496	city	-0.3240885
-3.979366	civil	-0.3021842
-5.299247	civilian
-4.234545	civilization	-0.1681218
-4.234545	civilized	-0.1170418
-4.210423	claimed	-0.1361396
-5.797112	clamp	-0.7012358
-5.299247	clams	-0.2657092
-5.797112	clamshell	-0.7009085
-4.316171	clapping	-0.09171822
-5.797112	clarification
-5.797112	clarified
-5.797112	clarify
-5.402909	clashed
-4.347187	clasp	-0.2174985
-4.038327	clasped	-0.368187
-3.757564	class	-0.2742844
-4.73676	classical	-0.2489946
-4.664312	clatter	-0.237039
-4.823761	clause	-0.2533305
-3.791976	clay	-0.2379774
-3.48432	clean	-0.2676026
-4.145184	cleaned	-0.1535617
-5.797112	cleaners
-4.347187	cleaning	-0.2630395
-5.402909	cleans
-3.226135	clear	-0.3705388
-3.749371	cleared	-0.4805402
-4.106569	clearer	-0.1881925
-4.145184	clearing	-0.1555143
-3.561295	clearly	-0.2762912
-5.797112	clerk's
-4.456253	clerks	-0.1570497
-3.617405	clever	-0.3495771
-4.664312	cliff	-0.2924557
-5.797112	cliff's	-0.7012165
-5.402909	climates	-0.4166688
-4.499681	climax	-0.2798269
-4.18757	climbed	-0.2374946
-4.260086	climbing	-0.1495047
-5.299247	clinches	-0.1607034
-4.316171	cling	-0.3918789
-5.078379	clockwork	-0.1613963
-3.1285	close	-0.603977
-3.774429	closer	-0.4831285
-4.380589	closet	-0.3194936
-3.903664	closing	-0.3875145
-5.402909	clot
-3.892237	cloth	-0.3195666
-3.393187	clothes	-0.4322476
-5.797112	clotheshorse
-3.927461	clothing	-0.2274334
-5.797112	clotted
-3.965797	cloud	-0.2758655
-5.797112	cloudburst
-3.965797	clouds	-0.3505764
-5.797112	cloverleaf	-0.7012223
-3.870248	club	-0.3093039
-4.347187	clumsy	-0.06206196
-3.965797	coach	-0.348755
-5.797112	coagulating
-4.106569	coal	-0.1872876
-5.797112	coal-black
-5.402909	coalition
-4.287224	coals	-0.2387385
-4.316171	coast	-0.2731017
-3.757564	coat	-0.426774
-5.797112	coauthors	-0.6999803
-5.797112	cobbler's
-5.299247	coconut	-0.3572379
-5.797112	coconuts
-4.499681	code	-0.121377
-5.299247	codes
-5.797112	coeducational
-5.797112	coexist
-3.903664	coffee	-0.3644493
-5.797112	coffers
-4.823761	coil	-0.109819
-4.260086	coin	-0.2844965
-5.402909	coincided	-0.5217903
-4.499681	coins	-0.3912901
-5.402909	coke
-3.288841	cold	-0.3700202
-5.797112	cold-blooded
-5.299247	collared
-4.73676	colleagues	-0.1104635
-4.547941	collection	-0.2225518
-5.402909	collects	-0.5241516
-4.823761	colleges	-0.2211469
-4.73676	collie	-0.04489527
-5.299247	collusion
-3.819701	color	-0.3845339
-4.007847	colored	-0.1871516
-5.402909	colorful	-0.6941788
-4.456253	colossal	-0.06359738
-4.260086	column	-0.2423428
-4.932672	combine
-4.823761	combustion
-2.881737	come	-0.7984777
-3.19788	comes	-0.4905843
-3.056999	coming	-0.6280652
-3.703215	command	-0.3986723
-4.038327	comment	-0.3231693
-4.416775	commercial	-0.1046275
-3.561295	common	-0.2324266
-3.993373	commonplace	-0.1667936
-5.299247	communism
-4.18757	community	-0.3529266
-4.347187	compact	-0.2567838
-3.881103	companions	-0.3401058
-3.418956	company	-0.4257642
-5.797112	company's	-0.7012368
-5.078379	comparable	-0.2194809
-4.316171	compare	-0.1718475
-4.260086	comparison	-0.3699155
-4.260086	compensation	-0.244051
-5.797112	competently	-0.1831263
-5.299247	competing	-0.05290154
-4.380589	competition	-0.4307986
-5.078379	competitive	-0.1683821
-5.078379	competitors	-0.216143
-5.797112	compile
-3.765915	complete	-0.2316883
-3.674962	completely	-0.1477677
-4.380589	complex	-0.3533444
-5.797112	complexity
-4.932672	compliance	-0.307176
-4.287224	complicated	-0.1839695
-5.402909	complicity
-4.416775	compose	-0.2327306
-4.316171	composition	-0.1570497
-4.932672	compositions	-0.1283917
-4.125447	composure	-0.4561092
-4.823761	compound	-0.07382301
-5.299247	compounded	-0.5722257
-5.797112	compounds
-5.797112	compresses
-4.664312	compulsion	-0.2731908
-5.299247	compulsory
-5.797112	computer	-0.701124
-5.797112	computers
-3.993373	comrades	-0.2779559
-5.299247	conceivably
-4.316171	conceived	-0.1812051
-5.299247	concept
-3.83922	concern	-0.3200359
-4.145184	concerns	-0.3018183
-4.823761	concert	-0.2054485
-5.797112	concessionaire
-3.903664	conclusion	-0.357749
-4.234545	conclusions	-0.2238484
-4.73676	concrete	-0.03524775
-5.797112	concurrent
-5.078379	condemns
-3.629552	condition	-0.3807717
-3.774429	conditions	-0.3399635
-5.402909	confabulation
-5.402909	conferences
-3.605588	confidence	-0.5269514
-4.18757	confident	-0.3026759
-4.287224	confidential	-0.1040272
-5.299247	configuration
-5.299247	confines
-4.602241	confirm	-0.1548868
-4.380589	confirmation	-0.2788264
-4.088477	confronted	-0.3222387
-3.774429	confusion	-0.4061137
-5.402909	congestion
-4.456253	congratulate	-0.5344949
-4.602241	congregation	-0.06706231
-4.73676	conjured	-0.164325
-5.797112	connoisseur
-3.83922	conscience	-0.3544918
-4.260086	consequences	-0.3940546
-5.299247	conservatism
-3.757564	consider	-0.4604122
-3.903664	considerable	-0.1169648
-4.054409	considerably	-0.0815385
-3.72568	considered	-0.3254267
-3.783114	considering	-0.3803816
-4.73676	consistently	-0.106264
-4.499681	consists	-0.2152868
-5.797112	consolidation
-4.234545	conspicuous	-0.2149803
-3.819701	constantly	-0.1741903
-4.380589	construction	-0.3991921
-5.797112	constructions	-0.1831292
-4.932672	consume	-0.2447688
-5.797112	consumers
-5.078379	consuming	-0.3025586
-4.287224	consumption	-0.3165572
-4.260086	contact	-0.4743532
-4.823761	contagious	-0.2985763
-4.287224	contain	-0.1600488
-3.927461	contained	-0.2083238
-5.797112	container
-4.347187	contains	-0.2530399
-4.932672	contemporary
-4.664312	contentedly	-0.1241693
-4.823761	continental	-0.1737865
-3.952639	continue	-0.3807117
-3.400395	continued	-0.415865
-4.316171	continues	-0.358561
-4.145184	continuing	-0.2849113
-4.73676	continuous	-0.1104635
-4.664312	continuously	-0.01908324
-5.797112	contradictorily
-4.234545	contrary	-0.4043801
-4.210423	contrast	-0.3118108
-4.932672	contribute
-4.73676	contributed	-0.6118922
-5.402909	contributions	-0.4224981
-3.881103	control	-0.3090538
-4.316171	controlled	-0.1343356
-4.73676	controls	-0.05951741
-4.18757	convenient	-0.3055402
-4.316171	converted	-0.2242682
-4.416775	convey	-0.03875985
-3.859657	conviction	-0.3918548
-4.260086	convince	-0.4796432
-4.416775	convincing	-0.212732
-3.654917	cook	-0.2199177
-4.071109	cooked	-0.1591099
-5.797112	cooked-over	-0.1831263
-4.932672	cookies	-0.03094411
-4.106569	cooking	-0.2604141
-3.749371	cool	-0.238985
-5.797112	cooperated
-5.797112	cooperates	-0.6973661
-5.402909	cooperation	-0.5238595
-5.299247	cooperative
-5.078379	cop	-0.07397772
-4.347187	copper	-0.05914643
-4.823761	copra	-0.2405776
-4.054409	copy	-0.5795201
-4.316171	cordial	-0.1972648
-5.797112	corduroy
-3.927461	corn	-0.2876733
-3.72568	corner	-0.493906
-4.823761	cornered	-0.0387388
-5.797112	cornmeal
-5.402909	corollaries
-3.939868	correct	-0.3290587
-5.299247	corrugated	-0.1632508
-5.402909	corsage	-0.5241834
-5.797112	cory	-0.7011977
-3.611456	cost	-0.4613953
-4.456253	costly	-0.1825148
-4.234545	costs	-0.1414845
-4.125447	costume	-0.3844663
-4.499681	costumes	-0.3569794
-4.16586	cottage	-0.2793392
-4.234545	cotton	-0.09282242
-4.210423	cough	-0.3333072
-2.78362	could	-0.7878582
-5.797112	could've
-5.299247	couldn't	-0.4236951
-3.703215	count	-0.3201339
-3.965797	counted	-0.4330294
-5.797112	counties
-3.404044	country	-0.3396598
-4.73676	countryside	-0.1642559
-4.316171	county	-0.2340011
-4.602241	couples	-0.03806751
-4.499681	courier	-0.2605607
-3.605588	course	-0.5951139
-3.765915	court	-0.2786219
-4.73676	courts	-0.1550792
-4.499681	courtyard	-0.4010019
-3.801023	cover	-0.2391767
-5.299247	coverage
-3.52593	covered	-0.4595917
-4.316171	covers	-0.1539114
-3.979366	cow	-0.176624
-4.210423	coward	-0.2796928
-4.823761	cowboy	-0.148252
-5.797112	cowboy's
-5.797112	cowling
-4.106569	cows	-0.3129001
-5.402909	coy
-5.402909	coyote	-0.1873895
-4.499681	crab	-0.2662634
-4.038327	crack	-0.2428586
-4.038327	cracked	-0.1824887
-4.106569	craft	-0.1779459
-5.797112	cranberry
-4.347187	crash	-0.1672844
-4.602241	crashed
-5.078379	crashing	-0.09028914
-4.664312	crave	-0.1361994
-4.260086	crawling	-0.1712037
-5.299247	crazily	-0.05290154
-3.688859	crazy	-0.4246892
-4.16586	cream	-0.3637499
-4.547941	create	-0.1054977
-4.054409	created	-0.1867507
-4.210423	creation	-0.4337284
-3.774429	credit	-0.4498899
-4.038327	creeping	-0.108559
-5.299247	creole	-0.4236619
-3.757564	crept	-0.3089156
-4.73676	crest	-0.1074817
-4.73676	crestfallen	-0.3075243
-4.210423	crew	-0.1691008
-4.16586	crimson	-0.1754701
-4.210423	crisis	-0.2862217
-4.380589	crisp	-0.0452378
-5.797112	criss-cross	-0.1831321
-5.797112	crisscrossed	-0.6981107
-4.16586	critical	-0.1958427
-4.054409	crooked	-0.2286761
-4.416775	crops	-0.09287839
-3.648435	cross	-0.2639832
-3.749371	crossed	-0.5239109
-5.797112	crossings
-5.402909	crossroads
-3.829351	crowd	-0.2468211
-4.16586	crown	-0.2226482
-4.823761	crucial	-0.3320113
-5.078379	crucified	-0.2405776
-4.73676	crude
-5.299247	crudely
-3.594084	cruel	-0.3017067
-4.106569	cruelty	-0.336326
-5.299247	crunched
-3.979366	crushed	-0.2093288
-5.797112	crushers
-3.458642	cry	-0.4291598
-5.402909	crystalline
-5.797112	crystallizing
-5.299247	cubic	-0.4236488
-5.797112	cuisine	-0.6988976
-4.106569	cultivated	-0.1160602
-5.299247	cultural	-0.05290006
-5.797112	cultures
-5.797112	cupcakes	-0.696648
-4.287224	cups	-0.1722434
-3.939868	cure	-0.2893169
-4.16586	cured	-0.2807408
-3.733434	curiosity	-0.4661736
-3.599798	curious	-0.2384373
-3.810261	curiously	-0.3176704
-4.234545	curly	-0.2020737
-4.18757	current	-0.2161601
-4.932672	curry	-0.3916332
-4.547941	curve	-0.1738566
-4.823761	curves	-0.2189635
-5.078379	custody	-0.2381127
-4.347187	customer	-0.1677325
-4.210423	customers	-0.1201229
-3.323953	cut	-0.5430183
-4.316171	cuts	-0.1261805
-3.849318	cutting	-0.1441318
-5.797112	cyclical	-0.7012358
-5.299247	cynics
-3.635756	dad	-0.3592776
-3.819701	daily	-0.205822
-4.234545	damage	-0.1609217
-4.499681	damaged	-0.2955368
-3.979366	damp	-0.2472758
-3.668177	dance	-0.3487614
-4.456253	dancers	-0.2029498
-4.125447	dances	-0.2142427
-3.599798	danger	-0.470336
-3.733434	dangerous	-0.2529763
-4.16586	dangers	-0.1973078
-3.979366	danny	-0.2908917
-3.35555	dark	-0.3316191
-3.674962	darkness	-0.4332066
-4.664312	darned
-4.106569	dash	-0.2122488
-4.547941	data	-0.2575713
-3.993373	date	-0.3504971
-3.599798	davy	-0.3118346
-3.859657	dawn	-0.2944744
-3.096663	day	-0.6374356
-5.797112	daydreamed
-3.300233	days	-0.5567102
-5.078379	daytime	-0.2876857
-3.214138	dead	-0.3855378
-5.797112	deadline	-0.7010691
-3.9154	deal	-0.5661088
-5.299247	dealers
-2.971954	dear	-0.6471935
-3.272296	death	-0.457177
-4.416775	debts	-0.3540382
-5.078379	debut	-0.1125044
-5.402909	decadent	-0.08198199
-4.664312	deceitful	-0.09910265
-4.456253	deceiving	-0.27498
-4.456253	december	-0.1417373
-3.881103	decide	-0.4504605
-3.654917	decided	-0.4978992
-4.664312	decides	-0.0416852
-5.299247	decisions
-4.316171	decisive	-0.1460402
-4.18757	deck	-0.3165955
-5.797112	decking
-3.718062	declared	-0.3085676
-4.602241	declining	-0.0108056
-4.932672	decorate	-0.1101642
-4.602241	decorated	-0.1150808
-5.078379	decorative	-0.1613963
-5.402909	decorator
-4.932672	decrease
-5.797112	deduct
-5.402909	deductible
-4.088477	deed	-0.2893922
-3.446351	deep	-0.3237718
-3.859657	deeper	-0.3133632
-3.74133	deeply	-0.3193358
-4.106569	deer	-0.312155
-4.547941	defects	-0.2121055
-4.234545	defend	-0.2575876
-4.416775	defended	-0.1379695
-4.347187	defense	-0.2827792
-5.078379	defensive	-0.2154085
-4.260086	defiantly	-1.247052
-4.823761	define
-3.939868	definite	-0.1557521
-4.18757	definitely	-0.1352648
-3.979366	degree	-0.3935944
-4.18757	degrees	-0.2746208
-5.299247	delegated
-5.797112	delete	-0.7012151
-3.849318	delicate	-0.1467659
-3.952639	delicious	-0.2068223
-3.801023	delight	-0.4713776
-3.72568	delightful	-0.185757
-5.797112	delineating
-4.823761	delivering	-0.07335278
-3.870248	demand	-0.2601086
-3.733434	demanded	-0.2508682
-4.664312	demands
-5.797112	demineralization
-4.499681	demonstration	-0.148548
-4.499681	dense	-0.07874666
-5.078379	density	-0.03905097
-5.797112	denunciation
-3.965797	deny	-0.4184384
-4.664312	departments	-0.333416
-4.234545	departure	-0.3478855
-3.849318	depend	-1.107656
-5.299247	depreciation
-4.664312	deprive	-0.3299899
-4.602241	deputy	-0.1313537
-5.797112	dereliction
-4.347187	derived	-0.2204488
-5.402909	deriving
-4.02282	describe	-0.4773202
-3.892237	described	-0.4820707
-5.797112	desegregate
-4.16586	deserves	-0.3494461
-3.979366	design	-0.242201
-5.078379	designer	-0.1613963
-4.145184	desirable	-0.2439488
-3.535744	desire	-0.5275851
-3.952639	desires	-0.2439846
-4.260086	desk	-0.335231
-4.456253	desolation	-0.2049484
-3.810261	despair	-0.5089765
-3.859657	desperately	-0.3943576
-4.145184	despised	-0.2549244
-4.347187	despite	-0.1810263
-4.932672	dessert	-0.8241541
-4.106569	destiny	-0.3106182
-4.007847	destroy	-0.3314674
-4.380589	destroying
-4.088477	detail	-0.3445487
-5.078379	detailed
-3.952639	details	-0.4350845
-5.797112	detectable
-5.797112	detective's
-4.071109	determination	-0.3145602
-4.210423	determine	-0.2133293
-3.703215	determined	-0.5595972
-5.402909	detract	-0.2741539
-4.547941	develop	-0.0292372
-4.054409	developed	-0.2381943
-4.73676	developing	-0.222215
-4.071109	development	-0.4040791
-4.316171	device	-0.182328
-4.602241	devour	-0.1301769
-4.416775	dew	-0.2054485
-5.402909	diagnosed	-0.2727048
-4.932672	diagnosis	-0.2197275
-5.402909	diagonally
-5.402909	diagram
-5.797112	diane	-0.7006409
-5.797112	diarrhoea
-4.456253	dice	-0.1754853
-5.797112	dictators
-4.664312	dictionary	-0.1278772
-2.723057	did	-0.8515208
-4.499681	didn't	-0.2217153
-3.502323	die	-0.5191545
-3.386097	died	-0.398581
-4.287224	diet	-0.2615345
-4.02282	differ	-0.33139
-3.892237	difference	-0.4542703
-4.547941	differences	-0.1785603
-3.375674	different	-0.3746008
-5.797112	differentiate
-3.849318	differently	-0.4512952
-3.661496	difficult	-0.5200207
-4.18757	dig	-0.1400684
-3.965797	dignity	-0.5071871
-3.939868	dim	-0.2141723
-5.078379	dime	-0.4294217
-4.664312	dimensions	-0.3655727
-5.078379	diminish	-0.2698071
-5.299247	diminishing	-0.05290154
-5.797112	dingo
-3.41518	dinner	-0.4323575
-5.299247	diploma	-0.8033549
-3.783114	direction	-0.4217096
-3.993373	directions	-0.2224776
-4.602241	director	-0.1671345
-4.73676	directory	-0.4294217
-4.02282	dirt	-0.3003262
-3.83922	dirty	-0.2151705
-3.629552	disappeared	-0.5336756
-3.688859	disappointed	-0.4393824
-4.664312	disapproval	-0.2950879
-5.797112	disapproves
-4.16586	disaster	-0.3236566
-5.078379	discard	-0.08935691
-4.007847	discipline	-0.168335
-4.823761	disciplined
-5.078379	disclaimer	-0.4624263
-5.299247	discount	-0.3571931
-4.007847	discouraged	-0.3510652
-4.547941	discouraging	-0.4634965
-3.757564	discovered	-0.3970669
-5.402909	discretionary	-0.0819791
-3.952639	discussion	-0.3644219
-4.73676	discussions	-0.222056
-4.038327	disease	-0.323922
-4.547941	diseases	-0.112808
-3.993373	disguise	-0.3246386
-4.260086	disgusting	-0.247525
-4.088477	dish	-0.3093914
-3.965797	dishes	-0.2321486
-5.299247	disk
-4.18757	disliked	-0.1965624
-4.664312	dislikes	-0.0467688
-4.664312	disobeyed	-0.05418951
-5.402909	dispel	-0.2205641
-5.797112	dispensing	-0.7012368
-4.347187	dispersed	-0.5508258
-4.664312	displacement	-0.1642559
-4.316171	display	-0.3162769
-4.416775	displayed	-0.04775716
-4.125447	dispute	-0.1271695
-4.602241	disputes
-5.402909	disregarding
-5.078379	dissolve
-3.810261	distance	-0.3266174
-4.499681	distances	-0.1404659
-4.932672	distaste	-0.1994629
-3.965797	distinct	-0.2076492
-3.965797	distinguished	-0.1374427
-4.602241	distorted	-0.1073692
-4.038327	distracted	-0.1996415
-3.870248	distress	-0.3927096
-4.602241	distributed	-0.1104635
-4.932672	districts	-0.08588254
-4.316171	disturb	-0.5122734
-4.823761	ditches	-0.7522025
-4.287224	dive	-0.1767441
-5.402909	diversity	-0.2723597
-3.881103	divided	-0.246233
-5.797112	divinities
-4.16586	division	-0.3081755
-4.416775	divorce	-0.1739147
-4.664312	divorced	-0.220773
-2.768093	do	-0.8868124
-3.352285	doctor	-0.3424497
-4.088477	doctors	-0.2736097
-4.287224	doctrine	-0.1003999
-5.402909	documented
-4.260086	documents	-0.2400526
-4.932672	dodging
-3.060308	does	-0.6829485
-5.299247	doesn't	-0.05290052
-3.446351	dog	-0.2834962
-5.402909	dogmatically
-3.605588	dogs	-0.2844266
-5.797112	doin'
-3.372255	doing	-0.5312203
-4.380589	doll	-0.3418363
-4.145184	dollar	-0.4117768
-5.797112	dollar-and-cents
-3.870248	dollars	-0.5523083
-5.797112	dollars-and-cents
-5.402909	dolphins	-0.5231211
-4.547941	dome	-0.1778522
-4.347187	domestic	-0.08607644
-4.823761	dominant	-0.1241693
-4.499681	dominated	-0.05568791
-4.499681	don't	-0.1050928
-5.797112	donate
-5.797112	donated
-3.28604	done	-0.6191226
-3.382595	door	-0.5476114
-3.718062	doors	-0.3507079
-4.664312	doorways	-0.1143535
-5.797112	dormitories
-4.932672	doses	-0.1649514
-3.819701	double	-0.07358771
-5.797112	double-glaze
-3.654917	doubt	-0.5152121
-5.299247	dough	-0.216143
-5.797112	doused
-2.729212	down	-0.7447712
-5.402909	downpour
-3.648435	downstairs	-0.485152
-4.664312	downtown
-4.16586	downward	-0.2692021
-4.416775	dozen	-0.1781707
-4.932672	drain
-4.260086	dramatic	-0.1630234
-3.829351	drank	-0.2056019
-5.797112	drastically
-3.681855	draw	-0.3302594
-3.582877	drawing	-0.487592
-4.932672	drawled
-3.783114	drawn	-0.187353
-3.493228	dream	-0.4539101
-3.668177	dreams	-0.3639607
-4.456253	drenched	-0.2049964
-3.471292	dress	-0.4010872
-3.993373	dressing	-0.3987968
-5.078379	dressy	-0.08972048
-3.45041	drew	-0.6668201
-3.892237	dried	-0.1930135
-4.088477	drift	-0.1862778
-4.316171	drifted	-0.05625666
-4.347187	drifting	-0.1271673
-3.475591	drink	-0.3284352
-5.299247	drinkers
-3.611456	drive	-0.3724227
-3.927461	driven	-0.2584665
-4.73676	drivers	-0.07589795
-3.819701	driving	-0.2250975
-3.681855	drop	-0.3839115
-3.45041	dropped	-0.4767258
-4.071109	drops	-0.2086692
-5.402909	drought
-3.765915	drove	-0.3472394
-4.456253	drug	-0.247919
-5.797112	drug's	-0.2758251
-4.380589	drugs	-0.2683596
-5.402909	drugstore	-0.5217017
-3.710575	drunk	-0.3076429
-4.823761	drunkard	-0.5070135
-4.73676	drunkards	-0.07841183
-4.602241	drunkenness	-0.1241693
-3.475591	dry	-0.2334149
-4.347187	drying	-0.04816845
-4.823761	dubious	-0.1995812
-4.18757	duck	-0.1674732
-4.602241	ducks	-0.2815752
-3.757564	due	-0.371491
-4.316171	dug	-0.05841184
-3.688859	dull	-0.1995424
-3.927461	dumb	-0.3075872
-4.932672	dumped	-0.08922356
-4.823761	duplicate	-0.06854758
-3.327011	during	-0.8861928
-3.9154	dust	-0.1637093
-5.078379	dusting
-4.287224	dutch	-0.19481
-3.674962	duty	-0.5540413
-4.416775	dwarf	-0.3552791
-4.071109	dwell	-0.4038193
-5.797112	dyeing
-3.74133	dying	-0.3964766
-5.797112	dynamics
-5.402909	dynastic	-0.08196609
-3.060308	each	-0.5857014
-3.511612	eagerly	-0.4571644
-4.054409	eagerness	-0.3713283
-3.881103	ear	-0.4587886
-3.783114	earlier	-0.3530623
-3.320916	early	-0.4711893
-4.071109	earn	-0.3163274
-3.654917	earnestly	-0.4838072
-3.927461	ears	-0.3603522
-3.623436	earth	-0.3442044
-5.797112	earth's
-5.402909	earthenware	-0.0819791
-4.316171	earthly	-0.06206404
-4.932672	earthquake	-0.5043806
-3.979366	ease	-0.2526492
-4.499681	eased	-0.06742579
-3.791976	easier	-0.4375705
-3.44233	easily	-0.2594763
-4.664312	eastern	-0.1410223
-3.365496	easy	-0.529435
-5.402909	easygoing	-0.5241993
-3.556063	eat	-0.3480341
-4.071109	eaten	-0.1965178
-3.654917	eating	-0.2258536
-4.932672	eccentricity
-3.927461	echo	-0.3083738
-4.499681	economic	-0.07033546
-5.797112	economically
-4.260086	economy	-0.2332052
-5.797112	ecumenical
-3.952639	edge	-0.7131498
-4.932672	edges	-0.3410527
-5.402909	edgy	-0.08198348
-3.74133	education	-0.4120573
-4.73676	educational	-0.01908902
-3.57738	effect	-0.5810117
-4.316171	effective	-0.2104844
-4.125447	effects	-0.3393573
-4.416775	efficiency	-0.4241946
-4.547941	efficient
-3.733434	effort	-0.631101
-4.287224	egg	-0.1779042
-3.829351	eggs	-0.3473409
-5.078379	ego
-5.078379	egotist	-0.216143
-3.502323	eight	-0.4429578
-5.299247	eighteenth	-0.4694295
-3.0895	either	-0.403424
-4.547941	elaborately	-0.1825678
-5.402909	elbowing
-4.823761	elderly	-0.2491926
-4.347187	election	-0.1941861
-4.125447	electric	-0.1711405
-4.664312	electrical	-0.1634634
-4.416775	electricity	-0.2397036
-5.797112	electronic	-0.1831321
-4.038327	elegant	-0.199225
-4.145184	element	-0.4685868
-5.078379	elementary	-0.204715
-5.797112	elementary-school
-4.416775	elements	-0.2345838
-5.402909	elevator
-3.774429	eleven	-0.376135
-5.797112	ellipsoids
-4.499681	elm	-0.3734185
-5.402909	elongation
-3.654917	else	-0.4076507
-3.681855	elsewhere	-0.4258251
-4.823761	embankment
-4.932672	emblem	-0.1277244
-5.797112	embodiment
-4.73676	embracing	-0.08426287
-4.602241	emerge	-0.08376112
-4.456253	emergency	-0.4387935
-3.870248	emotion	-0.3855331
-4.602241	emotional	-0.06259216
-5.402909	emotionally
-4.125447	emotions	-0.2846298
-4.16586	emperor	-0.2454104
-4.038327	emphasis	-0.442473
-5.299247	emphasize
-4.664312	emphasized	-0.4691861
-5.797112	emphysema	-0.1831321
-5.797112	empirical
-5.299247	employee	-0.4236951
-4.823761	employees	-0.1953385
-3.952639	employment	-0.3106173
-3.511612	empty	-0.4017863
-5.402909	enabling
-5.797112	enact
-5.797112	enamel
-5.078379	encamped	-0.1134731
-4.071109	enclosed	-0.1485594
-4.316171	encountered	-0.1841433
-4.380589	encourage	-0.3931474
-4.02282	encouraged	-0.4734066
-5.402909	encyclopedias	-0.5241342
-3.404044	end	-0.6331491
-4.823761	endeavored	-0.6975483
-3.635756	ended	-0.3643278
-3.819701	ends	-0.2811995
-4.347187	endurance	-0.3677097
-3.881103	enemy	-0.3507982
-3.939868	energy	-0.3761089
-4.125447	engine	-0.2479875
-4.456253	engineer	-0.2262069
-4.823761	engineering	-0.2451303
-5.797112	engineers'
-5.078379	engulfed
-4.932672	enigma	-0.3655163
-3.774429	enjoy	-0.3894309
-3.859657	enjoyed	-0.2667558
-4.416775	enlightenment	-0.2644239
-4.73676	enlisted
-4.125447	enormous	-0.07482875
-2.803384	enough	-0.7855213
-4.932672	enrich	-0.05410263
-5.299247	ensue
-3.819701	enter	-0.3693148
-4.260086	entertaining	-0.282329
-4.664312	enthusiastic	-0.1060421
-4.071109	entire	-0.1184654
-3.400395	entirely	-0.2419865
-5.402909	entitle
-5.299247	entity
-5.299247	entries
-4.287224	entry	-0.261637
-4.499681	envelope	-0.2149417
-4.316171	environment	-0.3186669
-5.797112	environments
-5.402909	ephemeral
-5.299247	epidemic
-4.499681	episode	-0.2340803
-3.710575	equal	-0.3102026
-3.801023	equally	-0.1121832
-5.078379	equation
-4.416775	equipment	-0.3194125
-4.456253	equipped	-0.06426829
-4.499681	equivalent	-0.3916814
-5.299247	era	-0.304483
-4.18757	erect	-0.3866763
-4.456253	errors	-0.3403472
-5.078379	eruption	-0.1613963
-5.797112	escalator
-3.594084	escape	-0.4145249
-5.078379	esoteric
-3.511612	especially	-0.2873482
-4.547941	essay	-0.3013716
-4.106569	essential	-0.1660365
-4.316171	essentially	-0.0175511
-4.664312	establish	-0.194445
-4.071109	establishment	-0.2616851
-4.125447	estimate	-0.1320656
-5.078379	estimates
-5.797112	etc.
-4.02282	eternal	-0.1537518
-4.416775	eternity	-0.3323893
-4.73676	etiquette	-0.2811464
-5.797112	evacuate
-5.797112	evaluate	-0.6997614
-5.797112	evaluated
-5.797112	evaluation
-5.299247	evasive
-2.832855	even	-0.3954418
-3.454506	evening	-0.4762154
-4.499681	evenly	-0.4584544
-3.819701	events	-0.2851452
-5.797112	eventualities
-4.316171	eventually	-0.04080632
-3.013143	ever	-0.4051089
-5.797112	ever-increasing
-2.804304	every	-0.6159747
-3.339464	everybody	-0.3712699
-3.668177	everyone	-0.2283111
-2.953387	everything	-0.5922915
-3.749371	evidence	-0.4282518
-4.145184	evident	-0.4461142
-5.797112	evocative	-0.1831306
-5.797112	exacerbated
-5.797112	exacerbations
-3.253757	exactly	-0.5354657
-4.071109	exaggerated	-0.1944745
-5.797112	exam
-4.02282	examination	-0.3273407
-3.870248	examined	-0.4237618
-3.810261	example	-0.4456109
-4.316171	examples	-0.5771605
-3.74133	excellent	-0.1181366
-3.162856	except	-0.4468757
-4.210423	exception	-0.3956676
-4.416775	excess	-0.5058628
-4.16586	exchange	-0.1851152
-4.125447	exchanged	-0.2604484
-3.566591	excited	-0.3547725
-3.791976	excitement	-0.4515457
-4.145184	exciting	-0.1602528
-4.234545	exclaiming	-0.5297107
-4.499681	excluded	-0.3004249
-4.380589	exclusive	-0.2841737
-4.932672	execute	-0.1038381
-4.380589	execution	-0.4254926
-5.402909	executive
-3.801023	exercise	-0.2620382
-4.499681	exercises	-0.1663101
-4.260086	exhibited	-0.1437806
-5.299247	exhibits	-0.216143
-3.892237	exist	-0.3723978
-3.9154	existed	-0.3109637
-3.9154	existence	-0.4759366
-4.602241	existing	-0.229552
-4.071109	exists	-0.2141897
-5.078379	exotic	-0.3572278
-3.749371	expect	-0.5046692
-4.456253	expectations	-0.3902456
-3.605588	expected	-0.5187322
-3.783114	expecting	-0.423867
-4.287224	expects	-0.3693428
-4.145184	expense	-0.3901337
-4.071109	expensive	-0.196098
-3.497752	experience	-0.408323
-4.038327	experienced	-0.1579779
-3.952639	experiment	-0.2866355
-5.797112	experiment's	-0.7011847
-5.078379	experimental
-4.106569	experiments	-0.2334772
-5.797112	expertise
-5.797112	expertly
-4.73676	experts
-3.791976	explain	-0.4761412
-4.260086	explains	-0.2477607
-3.695977	explanation	-0.4322422
-4.73676	explicitly	-0.245139
-4.932672	exploring
-4.499681	explosion	-0.2851181
-5.402909	export	-0.08198055
-4.071109	exposed	-0.3260192
-4.380589	exposure	-0.141609
-3.488751	expression	-0.5270919
-5.797112	expressway	-0.1831292
-4.125447	exquisite	-0.1869313
-4.02282	extended	-0.1840657
-4.499681	extending	-0.1398015
-4.73676	extensive	-0.2968855
-4.18757	extent	-0.3212364
-3.979366	extra	-0.1599908
-3.791976	extraordinary	-0.1748303
-3.749371	extremely	-0.1568627
-4.823761	exultantly	-0.3922343
-3.599798	eye	-0.3763709
-5.299247	eyebrow
-5.797112	eyedrops	-0.7001296
-4.547941	eyelids	-0.1371225
-3.218897	eyes	-0.4706316
-5.797112	eyestrain
-5.078379	fabric	-0.07389387
-5.402909	fabrics
-3.136343	face	-0.5122647
-3.661496	faces	-0.3504838
-3.757564	fact	-0.4683822
-5.402909	factions
-5.402909	factors	-0.08197621
-3.695977	facts	-0.3324427
-4.18757	faculty	-0.3598504
-3.829351	faded	-0.317761
-3.783114	fail	-0.5578814
-3.629552	failed	-0.6385854
-4.18757	fails	-0.3683138
-3.870248	failure	-0.5213908
-3.688859	faint	-0.2891194
-3.379121	fair	-0.3220701
-3.599798	fairly	-0.1521986
-3.819701	fairy	-0.2365574
-3.648435	faith	-0.3619733
-3.365496	fall	-0.4970486
-3.829351	fallen	-0.3647624
-3.9154	falls	-0.2140242
-3.72568	false	-0.3034131
-5.797112	falters
-3.993373	fame	-0.2458389
-3.661496	familiar	-0.3092399
-4.547941	familiarity	-0.245983
-3.521105	family	-0.2976577
-3.927461	famous	-0.1994654
-3.993373	fan	-0.2250622
-5.402909	fancier
-3.623436	fancy	-0.3071231
-4.416775	fangs	-0.3983312
-3.109491	far	-0.6396216
-3.9154	farm	-0.2818873
-4.210423	farmers	-0.1496969
-5.299247	farmhouses
-5.797112	farmland	-0.696648
-5.402909	farmyard
-3.521105	farther	-0.5679837
-5.797112	fasciculations
-4.210423	fascinating	-0.2070938
-3.765915	fashion	-0.3742775
-4.73676	fashioned	-0.1309286
-3.368862	fast	-0.5055946
-3.801023	faster	-0.4060518
-3.688859	fat	-0.2860643
-3.002837	father	-0.4483422
-5.797112	father's
-4.16586	fathers	-0.2619072
-4.106569	fatigue	-0.2275804
-4.106569	fatigued	-0.2424908
-4.73676	fatigues	-0.05310224
-3.979366	fault	-0.5335441
-4.145184	faults	-0.2076129
-3.993373	favor	-0.4686207
-4.380589	favorable	-0.167163
-4.499681	favorite	-0.1197997
-4.416775	fawn	-0.2977467
-3.396776	fear	-0.5223863
-3.965797	feared	-0.4089321
-3.939868	fearful	-0.08235066
-4.088477	fears	-0.2175685
-4.416775	feasible	-0.4372572
-4.02282	feast	-0.2659561
-4.316171	feather	-0.2149571
-4.664312	feathered	-0.01906301
-4.145184	feathers	-0.4772249
-3.892237	features	-0.4291493
-4.071109	feed	-0.2554395
-3.48432	feel	-0.3320735
-3.28604	feeling	-0.3303153
-3.881103	feelings	-0.3166467
-3.952639	feels	-0.2013992
-3.561295	feet	-0.4813999
-3.140318	fell	-0.633917
-5.078379	fella
-4.602241	fellowship	-0.09936332
-3.320916	felt	-0.4841803
-4.210423	female	-0.1488498
-4.547941	fenced	-0.1424303
-4.823761	fences	-0.1363945
-5.797112	fermented
-5.797112	ferries
-5.797112	fertilizers
-3.774429	fever	-0.3375513
-4.287224	feverishly	-0.4000783
-3.703215	few	-0.5882111
-4.316171	fewer	-0.1207751
-5.402909	fibers
-5.797112	fibrosis
-4.210423	fiction	-0.3196785
-4.932672	fiddles	-0.03095712
-3.870248	field	-0.352684
-3.939868	fields	-0.2399573
-5.797112	fieldwork
-3.859657	fiercely	-0.453159
-5.797112	fiercest
-4.18757	fiery	-0.156712
-3.545784	fifteen	-0.495033
-4.499681	fifth	-0.2265453
-3.418956	fifty	-0.5017487
-3.44233	fight	-0.3892233
-4.380589	fights	-0.2688136
-3.458642	figure	-0.3335027
-4.347187	figured	-0.1851163
-3.83922	figures	-0.2489652
-4.73676	file	-0.0702245
-4.287224	files	-0.5002094
-3.903664	fill	-0.383014
-4.260086	filling	-0.1332338
-4.602241	film	-0.1880483
-5.402909	films
-5.402909	filtered
-4.071109	final	-0.1220559
-3.703215	finally	-0.2500742
-5.797112	financing
-3.475591	find	-0.685159
-3.648435	finding	-0.3580055
-4.071109	finds	-0.2011103
-3.411436	fine	-0.1986395
-5.797112	fine-feathered
-3.993373	finger	-0.3437838
-5.402909	fingerprints
-3.9154	fingers	-0.3006473
-3.83922	finish	-0.4502576
-4.210423	finishing	-0.1708273
-3.303128	fire	-0.4426388
-5.797112	firecrackers
-4.499681	fireplace	-0.3045651
-4.125447	fires	-0.2973925
-4.106569	firing	-0.08720878
-3.695977	firmly	-0.3955339
-4.210423	firmness	-0.2528159
-5.797112	firms
-2.961247	first	-0.3637111
-5.797112	fiscal
-3.502323	fish	-0.2944579
-4.73676	fishermen	-0.2342346
-4.007847	fishing	-0.2930187
-4.316171	fist	-0.2932641
-4.602241	fists	-0.2333633
-3.530809	fit	-0.4648656
-5.797112	fitfully
-3.136343	five	-0.6637721
-5.797112	five-hundred
-3.859657	fix	-0.2416345
-3.502323	fixed	-0.4460239
-5.402909	fjords	-0.423063
-4.16586	flag	-0.2890374
-4.16586	flame	-0.2046708
-3.979366	flash	-0.2671007
-4.316171	flashing	-0.1132573
-3.749371	flat	-0.2583479
-5.797112	flat-bottomed
-4.932672	flawless	-0.1283917
-5.797112	flaxseed	-0.1831311
-3.72568	fled	-0.3634087
-5.402909	fleecy
-3.765915	flesh	-0.3602611
-3.733434	flew	-0.336265
-4.823761	flexible	-0.0737536
-4.73676	flickered	-0.03785607
-4.16586	flies	-0.1725099
-4.73676	flimsy	-0.2533305
-5.402909	flip
-4.499681	float	-0.1309655
-5.797112	floc
-4.380589	flood	-0.3685381
-3.870248	floor	-0.4702259
-5.797112	floorboards
-5.078379	flopped	-0.1126987
-4.499681	flourish	-0.2315167
-4.664312	flourishes	-0.1143785
-4.18757	flow	-0.2052627
-3.881103	flower	-0.3433742
-5.797112	flowerpot
-3.52593	flowers	-0.3998384
-5.078379	fluid	-0.03905531
-5.299247	flurries	-0.4166688
-4.125447	fluttered	-0.09606863
-3.849318	flying	-0.1906101
-4.73676	foam	-0.2285613
-5.402909	foamy	-0.08198348
-5.299247	focus
-4.234545	fog	-0.1347227
-5.402909	foil
-4.380589	fold	-0.1182216
-3.952639	folded	-0.2470947
-4.73676	folds
-3.635756	follow	-0.5637751
-3.246048	followed	-0.586776
-3.605588	following	-0.3287091
-4.038327	follows	-0.4072346
-3.454506	food	-0.4850653
-5.402909	foods
-3.588444	fool	-0.4239287
-4.210423	fooling	-0.1856779
-3.661496	foolish	-0.3354483
-3.791976	fools	-0.2739989
-3.629552	foot	-0.2931877
-4.547941	football	-0.2769799
-5.299247	footfall
-5.402909	footnotes
-2.176436	for	-0.8670036
-4.380589	forbidden	-0.3750174
-3.566591	force	-0.3842259
-3.765915	forced	-0.455738
-4.106569	forces	-0.1027898
-4.18757	forehead	-0.3721478
-3.952639	foreign	-0.1543082
-4.416775	foreigners	-0.121377
-3.859657	forest	-0.3699033
-3.556063	forever	-0.4596862
-4.602241	forged	-0.03860868
-5.299247	forgery	-0.4425605
-3.582877	forget	-0.6195927
-4.145184	forgiveness	-0.4595635
-3.819701	forgot	-0.4378378
-3.454506	form	-0.3606711
-4.73676	formality	-0.2121055
-4.823761	formation	-0.1277244
-3.774429	formed	-0.2584377
-4.347187	former	-0.07831705
-3.892237	forms	-0.3708186
-4.499681	formula	-0.1916185
-5.797112	formulation
-3.629552	forth	-0.345368
-3.668177	fortune	-0.3368275
-3.438346	forty	-0.52156
-5.797112	forty-seven
-3.41518	forward	-0.4605452
-5.299247	fosters
-3.927461	fought	-0.1689377
-4.007847	foul	-0.2633156
-3.28049	found	-0.6157426
-3.223709	four	-0.4637637
-3.952639	frame	-0.2544542
-5.299247	framework
-5.797112	frankfurter
-5.299247	frankfurters
-4.456253	frantically	-0.09936332
-4.287224	freed	-0.1351926
-3.774429	freedom	-0.3945388
-3.801023	freely	-0.4120139
-5.797112	freethinkers
-4.260086	frequent	-0.1007541
-3.74133	frequently	-0.1513428
-3.44233	fresh	-0.2805524
-3.214138	friend	-0.5174097
-3.288841	friends	-0.5102631
-3.45041	frightened	-0.4764264
-4.823761	fringe	-0.2568855
-4.380589	frivolous	-0.08441149
-2.413895	from	-0.7926766
-3.979366	front	-0.5809513
-4.287224	frost	-0.2231676
-5.797112	frostbite
-5.797112	frowningly
-4.416775	froze	-0.04477824
-3.829351	fruit	-0.3235787
-5.299247	frustration	-0.4236864
-5.078379	fudge	-0.3570687
-4.823761	fulfilling	-0.162212
-5.402909	fulfillment
-3.231028	full	-0.439664
-5.402909	fullness
-3.718062	fully	-0.1266448
-4.932672	fumbled	-0.127325
-5.078379	fuming
-3.733434	fun	-0.4963908
-4.664312	function	-0.3999873
-5.402909	functional	-0.08198348
-4.499681	fund	-0.3375522
-5.797112	funding	-0.7012358
-4.547941	funds	-0.4916149
-5.797112	fungicides
-4.823761	funnel
-3.765915	funny	-0.2407091
-3.819701	fur	-0.1068856
-4.088477	furiously	-0.3545
-4.260086	furnish	-0.1200501
-5.078379	furrier	-0.3562219
-3.422765	further	-0.2884482
-4.210423	fuss	-0.3987997
-3.939868	future	-0.2423055
-5.797112	gab	-0.4236459
-5.797112	gadfly
-5.797112	gadget
-4.602241	gag	-0.03429522
-3.819701	gain	-0.2154681
-3.710575	gained	-0.3090051
-4.347187	gait	-0.1448581
-4.125447	gallant	-0.03096795
-5.299247	gallon
-5.797112	galoshes
-5.299247	galvanic
-3.511612	game	-0.3936639
-4.16586	gang	-0.1645991
-5.797112	gangplank
-5.299247	garage	-0.1101215
-4.932672	garbage	-0.3094577
-3.733434	garden	-0.3919025
-4.316171	gardens	-0.3084549
-5.078379	garlic	-0.5195941
-5.797112	garrisoned
-4.106569	gas	-0.2347806
-5.797112	gashes
-5.402909	gassing
-4.088477	gates	-0.4028615
-4.602241	gateway	-0.2315167
-3.74133	gathered	-0.234358
-3.993373	gathering	-0.1103751
-4.932672	gaudy
-3.148379	gave	-0.8729481
-3.810261	gay	-0.2501905
-3.993373	gazed	-0.309556
-4.347187	gear	-0.1957168
-5.797112	geeing
-4.664312	geese	-0.1241693
-3.599798	general	-0.1717414
-5.797112	general's	-0.7011601
-5.797112	generalizations
-5.299247	generalize
-3.703215	generally	-0.06922
-4.602241	generals	-0.2613332
-4.456253	generations	-0.2302354
-3.870248	generous	-0.2597365
-4.456253	generously	-0.1934135
-3.749371	gentle	-0.1771184
-3.45041	gentleman	-0.3953089
-3.467034	gently	-0.3987026
-4.602241	genuinely	-0.05376323
-5.797112	geocentricism
-5.299247	geographically
-4.932672	geological	-0.4236438
-3.246048	george	-0.3510903
-3.195606	get	-0.6525926
-3.688859	gets	-0.1416092
-3.35884	getting	-0.341419
-5.797112	ghetto
-5.797112	ghettos
-4.125447	ghost	-0.3014174
-5.402909	ghostlike
-4.260086	giant	-0.1807807
-4.234545	giants	-0.159691
-4.106569	gift	-0.4375658
-4.73676	gifted	-0.1104635
-4.088477	gifts	-0.2701601
-4.416775	gigantic	-0.1576239
-4.380589	gin	-0.1147913
-5.797112	giraffes	-0.7006307
-3.207095	girl	-0.3563141
-4.664312	girlie	-0.517173
-5.797112	girlishly
-3.382595	girls	-0.3301539
-3.243508	give	-0.8758987
-3.454506	given	-0.6059867
-3.749371	gives	-0.4510729
-5.402909	givin'
-3.635756	glass	-0.3835777
-5.299247	glaze
-4.823761	glazed	-0.2993284
-5.402909	glazing
-4.18757	gleam	-0.5451466
-4.287224	gleamed	-0.04023232
-4.347187	gleaming	-0.09030958
-4.664312	glee	-0.3186669
-4.347187	glimpse	-0.6369744
-4.602241	glistened	-0.2116995
-4.547941	glistening	-0.1518034
-4.106569	gloom	-0.4172696
-5.402909	glories
-5.078379	glorified
-4.602241	glossy	-0.04770691
-4.071109	gloves	-0.3733124
-4.125447	glow	-0.2445234
-4.347187	glowed	-0.2547597
-4.73676	glue	-0.3403818
-4.73676	glued	-0.05372938
-5.797112	gluttons
-2.982932	go	-0.7815974
-5.797112	go-cart	-0.7007146
-4.547941	goal	-0.2498038
-4.416775	goat	-0.1842728
-3.339464	goes	-0.4834271
-5.797112	goin'
-3.077241	going	-0.8709456
-3.475591	gold	-0.3972385
-5.797112	golfing
-3.283256	gone	-0.5749973
-5.299247	gonna
-2.877356	good	-0.4588858
-4.02282	goodness	-0.2856252
-5.078379	goodnight
-4.287224	goose	-0.3377037
-4.547941	gooseberry	-0.2319271
-4.380589	gorgeous	-0.1010828
-4.932672	gosh	-0.1953385
-3.122709	got	-0.6000884
-5.797112	goulash	-0.6983348
-4.602241	govern	-0.02854498
-4.823761	governing	-0.106264
-3.939868	government	-0.2195418
-3.952639	governor	-0.2547095
-4.380589	gowns	-0.2085272
-4.456253	grab	-0.05212787
-4.499681	gracefully	-0.3811021
-4.602241	grade	-0.1450564
-5.797112	grade-equivalent
-5.078379	grades
-3.757564	gradually	-0.08905294
-5.402909	graduation	-0.5240562
-4.664312	grains	-0.268502
-3.810261	grandmother	-0.2373664
-5.299247	grants
-5.402909	graph	-0.6918676
-3.927461	grateful	-0.4647373
-5.078379	graying	-0.1680553
-4.664312	grazing	-0.01690996
-5.797112	greasing	-0.7001542
-4.664312	greasy
-3.184412	great	-0.2402026
-3.695977	greater	-0.220828
-3.718062	greatly	-0.2643415
-4.456253	greedily	-0.2995197
-3.506943	green	-0.2383783
-5.402909	greenness
-4.106569	greeted	-0.5041559
-5.078379	gregory	-0.352678
-4.347187	grievance	-0.3156786
-4.823761	grievances	-0.5416076
-5.299247	grill
-4.316171	grin	-0.5625646
-4.16586	grinned	-0.3426964
-4.02282	grip	-0.3006351
-5.797112	groin
-4.416775	groom	-0.1398284
-4.73676	gross
-4.234545	grotesque	-0.1854022
-3.556063	ground	-0.3802125
-5.797112	groundhog	-0.7011182
-4.16586	group	-0.2605127
-4.416775	groups	-0.06370927
-3.629552	grow	-0.2975899
-3.642049	growing	-0.1616789
-3.599798	grown	-0.3747615
-3.892237	grows	-0.0791259
-4.16586	growth	-0.2656326
-4.932672	grudgingly
-4.823761	grunt	-0.07262582
-4.664312	guaranteed	-0.07226186
-4.932672	guarantees	-0.3085024
-3.801023	guard	-0.2816775
-5.797112	guerrilla	-0.1831306
-5.797112	guerrillas
-3.668177	guess	-0.5901791
-4.316171	guidance	-0.3330724
-3.801023	guide	-0.3175313
-5.797112	guidebook
-4.547941	guides	-0.2151988
-4.287224	guilt	-0.2726094
-3.849318	guilty	-0.3663416
-4.73676	gum	-0.3076196
-4.932672	gums
-3.881103	gun	-0.3375681
-5.797112	gunman
-4.547941	gunpowder	-0.4594761
-3.859657	guns	-0.3211087
-5.078379	gurgle
-4.932672	gus	-0.27327
-5.299247	gushed
-5.078379	guttural	-0.0903383
-4.347187	guy	-0.1424064
-5.402909	guys
-4.823761	gwen	-0.5287649
-5.797112	gyro
-5.797112	gyrocompass
-3.757564	ha	-0.3666519
-3.939868	habit	-0.4121597
-2.422986	had	-0.7509062
-5.402909	hafta
-4.287224	haggard	-0.1738955
-5.299247	hails
-3.57738	hair	-0.3473633
-4.547941	haired	-0.09296847
-2.987121	half	-0.5338668
-5.797112	half-inch	-0.1831292
-5.797112	half-man
-5.797112	halloween	-0.7012237
-5.299247	hallway	-0.4835781
-4.823761	halves	-0.2754546
-4.125447	ham	-0.3340804
-5.797112	ham-radio
-3.211777	hand	-0.5638064
-5.402909	handbag	-0.5230139
-3.9154	handed	-0.5027302
-4.73676	handful	-0.380483
-4.088477	handle	-0.2132648
-4.347187	handling	-0.08717074
-3.330091	hands	-0.4676598
-3.550894	handsome	-0.2975444
-4.16586	handy	-0.2289622
-5.797112	handyman-carpenter
-3.642049	hanging	-0.2987683
-5.797112	hangovers
-3.74133	happen	-0.5962289
-3.493228	happened	-0.5728219
-4.007847	happening	-0.458952
-3.870248	happier	-0.3615702
-3.849318	happily	-0.1587028
-3.333193	happy	-0.4752236
-3.138325	hard	-0.555152
-3.530809	hardly	-0.2851972
-4.260086	hardy	-0.1032745
-5.402909	harmlessly
-4.416775	harmony	-0.2356636
-5.299247	harms	-0.4212033
-4.038327	harsh	-0.2003053
-2.671269	has	-0.6364069
-3.588444	hastily	-0.3621799
-3.710575	hat	-0.4307275
-3.718062	hate	-0.4562005
-3.9154	hated	-0.3845607
-4.125447	hatred	-0.2836489
-4.145184	hats	-0.2339309
-4.380589	haughty	-0.2269624
-4.73676	hauling	-0.2221861
-3.965797	haunted	-0.466396
-2.753102	have	-0.6833736
-5.797112	haven't
-3.20943	having	-0.2733839
-5.797112	hawing
-4.071109	hay	-0.2748612
-4.823761	hazards	-0.1642559
-4.602241	haze	-0.1223722
-2.279272	he	-0.9267308
-5.299247	he'd
-5.402909	he'll	-0.08196899
-5.078379	he's
-3.352285	head	-0.4355316
-5.797112	head-in-the-clouds
-4.499681	headache	-0.4571691
-4.823761	headaches
-4.664312	heading	-0.2033506
-4.664312	headquarters	-0.3025586
-3.749371	heads	-0.2716155
-5.078379	healing
-3.783114	health	-0.3984052
-4.932672	healthful	-0.1415305
-5.402909	healthier
-3.952639	healthy	-0.2595294
-3.965797	heap	-0.2568329
-3.475591	hear	-0.7602965
-3.320916	heard	-0.6719046
-3.306043	heart	-0.476588
-3.83922	heartily	-0.4559142
-3.801023	heat	-0.4776399
-5.797112	heat's
-5.402909	heating
-4.602241	heave
-3.506943	heaven	-0.411209
-4.456253	heavens	-0.320121
-4.18757	heavier	-0.3829633
-3.535744	heavy	-0.2107389
-5.797112	heck
-4.347187	heels	-0.3434128
-5.299247	heights
-3.382595	held	-0.7320251
-4.664312	helium	-0.2984635
-3.757564	hell	-0.3420059
-4.823761	hello
-3.349044	help	-0.5842325
-4.456253	helpful	-0.1348649
-3.952639	helping	-0.1883218
-3.783114	helpless	-0.2951292
-4.125447	helps	-0.1139255
-4.499681	hem	-0.2587961
-4.932672	hemorrhage
-4.456253	hen	-0.2714781
-4.210423	henceforth	-0.06447589
-3.582877	henry	-0.2297031
-5.797112	hepatitis
-2.418417	her	-0.4322737
-5.797112	herb's	-0.7012021
-4.347187	herd	-0.1694358
-5.402909	herdin'
-2.574971	here	-0.7716551
-4.932672	heritage	-0.08700004
-4.071109	hero	-0.3031227
-4.234545	heroes	-0.2577557
-4.088477	heroic	-0.06434589
-4.602241	heroism	-0.3546183
-3.032955	herself	-0.4596774
-4.210423	hesitate	-0.4572936
-3.83922	hey	-0.433037
-5.797112	hibachi
-3.819701	hide	-0.3560801
-4.456253	hides	-0.08897374
-3.829351	hiding	-0.3523411
-3.277741	high	-0.293396
-3.611456	higher	-0.3502788
-4.73676	highest	-0.02186262
-3.939868	highly	-0.1791898
-4.664312	highway	-0.1585335
-5.299247	hiking
-3.881103	hills	-0.29936
-4.664312	hillside	-0.2085272
-2.567966	him	-0.6438444
-2.811736	himself	-0.5210609
-5.402909	hindu	-0.3572668
-4.16586	hint	-0.3865924
-4.16586	hire	-0.1268985
-3.993373	hired	-0.209051
-5.299247	hires	-0.357261
-5.402909	hiring
-2.424136	his	-0.5355163
-5.797112	hispanic	-0.7012237
-4.932672	historians	-0.1283917
-4.416775	historical	-0.09311874
-5.078379	historically
-3.605588	history	-0.4663234
-3.617405	hit	-0.4145654
-4.316171	hoarse	-0.3037866
-3.386097	hold	-0.6915736
-5.402909	holder
-3.479934	holding	-0.5763572
-3.993373	holds	-0.1166947
-3.810261	hole	-0.4106495
-4.125447	holes	-0.2211166
-3.965797	holiday	-0.3633806
-4.416775	holidays	-0.3208075
-3.102115	home	-0.5866524
-5.797112	home-made	-0.1831311
-4.18757	homes	-0.269723
-5.402909	homogeneous
-3.550894	honest	-0.3591302
-4.106569	honesty	-0.2664062
-3.881103	honey	-0.442753
-5.797112	honeybees
-3.83922	honor	-0.4691135
-4.416775	hood	-0.4014596
-4.664312	hoofs	-0.2243021
-4.007847	hook	-0.1188001
-4.932672	hooking	-0.1277141
-3.256357	hope	-0.6879269
-3.892237	hoped	-0.6008675
-4.125447	hopeful	-0.1038737
-3.849318	hopeless	-0.2517599
-4.499681	horizon	-0.4456972
-3.783114	horror	-0.4874192
-3.422765	horse	-0.3228877
-4.73676	horseback	-0.3517906
-5.797112	horseplay
-3.418956	horses	-0.3242075
-5.402909	hospitalization
-4.823761	hospitals	-0.106264
-4.02282	host	-0.3180559
-5.299247	hostages
-3.475591	hot	-0.3607763
-3.829351	hotel	-0.3895585
-4.380589	hotels	-0.1671345
-3.493228	hour	-0.5231234
-3.458642	hours	-0.4459942
-3.14433	house	-0.5436372
-4.071109	household	-0.2576877
-5.078379	householder
-3.530809	houses	-0.3354957
-5.797112	housewives	-0.7010387
-4.932672	housework	-0.148252
-2.843812	how	-0.7137235
-5.797112	how's
-2.808004	however	-0.4894192
-5.402909	hub
-4.038327	huge	-0.1319078
-4.547941	hugged	-0.2607603
-4.602241	hugging	-0.04122404
-4.316171	hull	-0.209489
-4.106569	hum	-0.16374
-3.52593	human	-0.3399794
-5.797112	humanism
-5.797112	humid	-0.7012358
-5.797112	humidity	-0.1831292
-4.054409	humor	-0.280836
-4.499681	humorous	-0.1241225
-4.038327	hundred	-0.5175145
-3.506943	hung	-0.3747379
-4.664312	hungarian	-0.3735873
-4.145184	hunter	-0.2073368
-3.774429	hurriedly	-0.3350967
-3.635756	hurry	-0.4289481
-3.41518	hurt	-0.5648267
-4.16586	hurts	-0.3612103
-3.556063	husband	-0.3564147
-5.797112	husband's
-5.299247	husbandry
-4.347187	husky	-0.4567142
-4.145184	hut	-0.2481047
-5.299247	hyacinths
-4.932672	hyena	-0.3085068
-5.299247	hyenas	-0.3049962
-4.664312	hypocrites	-0.1642559
-5.797112	hypothalamic
-5.402909	hypothetical
-4.316171	hysterical	-0.1861977
-2.206764	i	-1.057842
-5.797112	i'll	-0.70047
-5.402909	i'm
-5.797112	i've
-3.9154	ice	-0.4177968
-5.299247	ices	-0.5683255
-5.299247	icicles	-0.4234898
-4.260086	icy	-0.2467391
-3.44233	idea	-0.5830274
-3.993373	ideal	-0.2651571
-5.797112	ideally
-3.611456	ideas	-0.3693509
-4.499681	identical	-0.1317299
-4.823761	identified	-0.2042621
-5.078379	identify
-5.402909	ideological	-0.08198199
-5.797112	ideology	-0.7011746
-4.547941	idiotic	-0.4836002
-5.402909	idiotically	-0.517173
-4.547941	idly
-5.797112	idolize
-2.507676	if	-1.2891
-4.547941	ignore	-0.03801582
-4.210423	ignored	-0.3319311
-5.402909	ignores	-0.08198348
-3.35555	ill	-0.3914604
-4.932672	illegal	-0.2698071
-5.797112	illegally	-0.7012368
-4.054409	illness	-0.2275516
-4.823761	illnesses	-0.2405776
-4.380589	illuminated	-0.2817008
-5.797112	illuminating	-0.7012165
-4.73676	illumined	-0.1310953
-4.416775	illusions	-0.1523354
-4.007847	image	-0.3523574
-4.287224	images	-0.2485629
-3.849318	imagination	-0.3321505
-3.881103	imagine	-0.3839152
-3.952639	imagined	-0.2852843
-4.664312	imitate	-0.03721036
-4.823761	immaterial
-4.054409	immediate	-0.2343228
-3.308977	immediately	-0.3015722
-4.16586	immortal	-0.3247017
-5.299247	impact
-4.260086	imperfect	-0.1505457
-4.347187	impersonal	-0.07739548
-5.797112	implausibly
-5.402909	implications
-4.602241	implied
-4.664312	import	-0.2286807
-3.829351	importance	-0.6342773
-3.668177	important	-0.3270983
-5.402909	imports
-3.571952	impossible	-0.729144
-4.287224	impressions	-0.1426892
-3.927461	improved	-0.2966167
-4.18757	improving	-0.2017504
-4.664312	impulses	-0.07262582
-2.051851	in	-0.8925424
-4.547941	inadequate	-0.391408
-5.797112	inadvisable
-5.078379	inanimate
-4.602241	inarticulate	-0.07841183
-5.797112	inaugural
-4.416775	inch	-0.2289282
-5.299247	include
-4.007847	included	-0.3047478
-4.210423	including	-0.1666387
-5.797112	inclusions
-3.927461	income	-0.294615
-4.380589	incomplete	-0.05813821
-5.402909	incorporated
-4.260086	increase	-0.2527935
-3.642049	increased	-0.430073
-4.664312	increases	-0.2702973
-4.380589	increasing	-0.1135834
-2.779251	indeed	-0.5818297
-5.299247	indefinable
-4.664312	indefinite	-0.1143608
-5.797112	indemnity
-3.819701	independent	-0.3473739
-4.932672	index
-4.823761	indicate	-0.09823749
-4.145184	indicated	-0.2500878
-5.402909	indicates
-4.287224	indispensable	-0.3138722
-3.965797	individual	-0.1517889
-4.18757	individuals	-0.1771877
-4.547941	indulge	-0.1221175
-4.316171	industry	-0.2987588
-5.402909	ineffective	-0.08197621
-5.078379	inertia
-4.287224	inevitable	-0.288177
-5.299247	inexact
-5.299247	inexcusable	-0.216143
-4.932672	inexhaustible	-0.2286807
-4.73676	infancy
-5.299247	infection
-4.664312	infectious	-0.4242156
-4.932672	inferences	-0.2405776
-5.299247	inferiority	-0.3572494
-5.402909	infidels	-0.08198055
-5.797112	infield
-5.402909	infiltration
-5.797112	inflammatory
-4.823761	inflated
-4.456253	influences	-0.04535142
-3.733434	information	-0.3155729
-5.402909	informative	-0.5241834
-3.83922	informed	-0.3695085
-4.823761	infrequent	-0.3922343
-5.797112	infuriation
-4.602241	ingenuity	-0.06907077
-4.823761	ingredient	-0.1315474
-4.932672	ingredients
-4.602241	inhabit
-4.456253	inherited	-0.06824378
-5.797112	inhibitor
-4.499681	inhuman	-0.3012314
-4.664312	initiative	-0.1815787
-5.402909	injected
-5.402909	injection
-5.797112	injection-molded
-4.664312	injuries	-0.2033506
-3.979366	innocence	-0.3640352
-3.668177	inquired	-0.2973769
-3.979366	inquiry	-0.209356
-5.797112	insecticide	-0.1831321
-5.797112	insecticides
-4.932672	insert
-3.223709	inside	-0.5096352
-4.106569	insist	-1.070543
-4.499681	inspiring	-0.2079047
-5.299247	instability
-5.797112	installations
-4.499681	installed	-0.1943598
-4.007847	instance	-0.301105
-3.892237	instant	-0.3392033
-4.547941	instantaneous	-0.2959832
-3.320916	instead	-1.059388
-3.829351	instinct	-0.2931517
-3.993373	instructions	-0.4105032
-4.234545	instrument	-0.2837754
-4.210423	instruments	-0.4306394
-4.416775	insufficient	-0.128109
-5.402909	insulate	-0.08198348
-4.260086	insurance	-0.14587
-5.402909	integration
-5.078379	integrity
-3.749371	intelligence	-0.378497
-3.939868	intelligent	-0.3175128
-4.416775	intelligible	-0.315559
-4.16586	intent	-0.3623288
-5.402909	interchangeably	-0.7522025
-3.336318	interest	-0.5801849
-3.475591	interested	-0.6591635
-3.629552	interesting	-0.363418
-4.416775	interior	-0.4687337
-4.73676	internal	-0.1148758
-4.602241	interpretation	-0.2278571
-5.797112	interpretations
-4.287224	intervals	-0.277549
-3.952639	interview	-0.2973814
-5.797112	interviewee
-5.402909	interweaving	-0.08196031
-4.007847	intimate	-0.4361684
-2.699999	into	-0.9090115
-4.088477	introduced	-0.3607043
-5.402909	intrusions
-4.664312	intuition	-0.3608515
-5.797112	invade
-4.499681	invaluable	-0.3546183
-4.125447	invariably	-0.02439235
-5.797112	inventories
-4.73676	invest	-0.3034163
-4.380589	investigation	-0.2407202
-4.602241	investigations	-0.2154085
-5.797112	inviolate
-4.145184	invitation	-0.4608181
-4.932672	invoked
-4.106569	involved	-0.4617612
-5.078379	involves	-0.2200432
-4.932672	involving	-0.02564541
-4.456253	inward
-4.347187	inwardly	-0.3546183
-5.797112	irate	-0.5241848
-4.932672	iris	-0.3095199
-3.965797	irish	-0.2112407
-3.870248	iron	-0.1409964
-5.797112	iron-poor
-4.823761	ironic	-0.07590479
-4.316171	ironically	-0.5095073
-5.078379	ironing	-0.3985959
-4.73676	irons	-0.09018753
-5.797112	irradiation
-5.078379	irremediable
-5.078379	irresponsible
-4.106569	irritated	-0.3630733
-5.797112	irving's	-0.7010676
-2.269753	is	-0.6606814
-5.797112	isn't
-5.797112	isotopes	-0.6975483
-4.316171	issue	-0.4063267
-4.210423	issued	-0.06599647
-4.602241	issues	-0.04444962
-2.223123	it	-0.8283685
-5.797112	it'd
-4.823761	it's	-0.4568069
-4.664312	itching	-0.2990271
-4.347187	item	-0.1085385
-5.797112	itemize	-0.6996816
-4.73676	items	-0.09374258
-3.031399	its	-0.1826635
-3.116995	itself	-0.4898831
-4.416775	ivory	-0.2642124
-5.402909	jabbed
-5.078379	jackass
-4.145184	jacket	-0.413292
-5.299247	jaded
-4.823761	jagged
-5.797112	jaguars	-0.6989325
-4.287224	jam	-0.3351952
-3.393187	jane	-0.3458574
-4.456253	january	-0.2035979
-4.347187	jar	-0.1590059
-4.73676	jars	-0.09037798
-4.456253	jaw	-0.3244936
-5.402909	jealousies
-4.02282	jealousy	-0.3130571
-5.797112	jeep	-0.6987392
-4.316171	jeff	-0.1256727
-5.797112	jeff's	-0.7012194
-5.797112	jeopardize
-4.347187	jerk	-0.2971822
-5.797112	jerky
-4.73676	jet	-0.3688833
-4.602241	jewel	-0.1170089
-3.386097	jim	-0.3060937
-5.797112	jim's	-0.7012295
-3.605588	job	-0.353302
-5.402909	jocular	-0.08198348
-3.115107	john	-0.3597546
-5.797112	john's	-0.7009505
-3.979366	join	-0.4402516
-4.456253	joining	-0.1251169
-4.456253	joint	-0.2480317
-5.797112	jokers
-4.088477	jokes	-0.2831803
-4.260086	joking	-0.3803822
-4.380589	journal	-0.256758
-5.797112	journalese
-4.932672	journalist	-0.3633793
-4.664312	joyce	-0.4177369
-3.629552	judge	-0.3282406
-4.106569	judged	-0.2453285
-4.547941	juice	-0.4302841
-5.078379	juicy	-0.3572567
-3.810261	jump	-0.3374919
-3.791976	jumped	-0.4765438
-4.287224	jungle	-0.2060116
-5.797112	jungle-like	-0.701231
-4.823761	junior	-0.1798832
-2.702906	just	-0.4868805
-4.602241	justification	-0.2747941
-5.797112	kayak	-0.7004266
-5.797112	kayo
-5.797112	keelson
-3.407725	keep	-0.567618
-3.3179	kept	-0.4393806
-5.797112	kernels
-5.078379	kerosene	-0.06258423
-3.903664	key	-0.4022197
-4.932672	keyed	-0.0867829
-4.260086	keys	-0.3433072
-4.054409	kick	-0.2037987
-3.892237	kid	-0.2857246
-5.797112	kid's
-5.797112	kidnappers
-4.499681	kids	-0.3546183
-3.654917	kill	-0.6375169
-3.540735	killed	-0.4579654
-4.125447	kin	-0.116157
-3.266918	kind	-0.6523567
-5.078379	kinda
-5.797112	kindergarten
-3.506943	kindly	-0.2968825
-5.402909	kippers	-0.5212973
-3.801023	kissed	-0.8156015
-3.993373	kitchen	-0.3455756
-4.932672	knack
-4.416775	knee	-0.2993037
-4.347187	kneeling	-0.1603515
-4.347187	knees	-0.2832795
-3.243508	knew	-0.7473513
-5.797112	knick-knacks
-3.979366	knife	-0.3261293
-5.797112	knifelike
-4.234545	knit	-0.283872
-4.73676	knitted	-0.1926765
-4.316171	knives	-0.2814138
-3.74133	knocked	-0.4458519
-3.233496	know	-0.8081817
-4.18757	knowed	-0.285388
-3.488751	knowing	-0.4057588
-4.547941	knowingly	-0.3855384
-3.516332	known	-0.4157705
-3.52593	knows	-0.5500543
-5.402909	labeled
-3.965797	labor	-0.2623709
-4.664312	laboratory	-0.2315167
-5.797112	lacerate
-3.927461	lack	-0.4833626
-5.299247	lackeys
-5.797112	lactating
-3.493228	lad	-0.3643874
-4.234545	ladder	-0.2783178
-5.797112	lady's
-4.664312	ladylike	-0.2611659
-5.402909	lagoon	-0.1212934
-3.467034	laid	-0.5874961
-3.965797	lake	-0.2879251
-5.797112	lamb's	-0.7012179
-3.859657	lamp	-0.2612493
-4.210423	lamps	-0.2855937
-3.386097	land	-0.4266728
-5.797112	land-based	-0.1831311
-4.234545	landlord	-0.2029947
-4.932672	landmarks
-3.611456	language	-0.3404827
-3.521105	large	-0.2243817
-4.287224	largely	-0.07325879
-3.881103	larger	-0.2483121
-5.797112	larvae
-4.664312	lashed
-5.078379	lashings
-3.053715	last	-0.4523986
-5.797112	latches
-3.45041	late	-0.5655786
-5.078379	latent
-3.35884	later	-0.5504969
-4.664312	latest	-0.2113634
-5.402909	lathe
-5.299247	latitudes
-4.664312	latter	-0.08047888
-3.35884	laugh	-0.5477917
-3.300233	laughed	-0.6039114
-3.372255	laughing	-0.5495609
-5.299247	lavishly
-3.582877	law	-0.3985019
-4.210423	lawful	-0.133379
-3.801023	laws	-0.2950693
-4.18757	lawyer	-0.1786036
-4.380589	lawyers	-0.1524925
-3.132403	lay	-0.4255844
-5.797112	lay-up	-0.1831263
-5.797112	layoffs	-0.7012358
-4.007847	lazy	-0.3108456
-3.654917	lead	-0.5332336
-4.106569	leader	-0.3797002
-5.402909	leadership
-3.718062	leading	-0.2464312
-4.125447	leaf	-0.2165034
-5.797112	leaflet
-4.16586	leagues	-0.2247066
-3.927461	leap	-0.1550417
-3.801023	learn	-0.4115857
-3.611456	learned	-0.354353
-3.927461	least	-0.1448606
-4.088477	leather	-0.2335454
-3.379121	leave	-0.791588
-3.57738	leaves	-0.2353739
-3.540735	leaving	-0.403884
-5.797112	leavings
-3.582877	led	-0.6689913
-4.664312	ledger	-0.2702973
-5.402909	leeway
-3.040823	left	-0.6923349
-4.007847	leg	-0.2697164
-4.071109	legal	-0.08865447
-4.347187	legend	-0.2866646
-4.73676	legged	-0.04273833
-4.547941	legislation	-0.1241693
-5.078379	legislative
-5.402909	legislature	-0.1872763
-3.72568	legs	-0.3125513
-4.007847	leisure	-0.429699
-4.602241	lemon	-0.227419
-3.927461	length	-0.3714662
-5.078379	lengthy	-0.2221904
-5.402909	leopards
-3.226135	less	-0.2717111
-3.965797	lesson	-0.4128616
-3.810261	lessons	-0.257052
-3.83922	lest	-0.4206215
-3.005757	let	-1.168609
-5.402909	let's
-3.582877	letter	-0.4118069
-3.566591	letters	-0.3238339
-3.72568	level	-0.4239949
-5.797112	leveling
-5.078379	levels	-0.216143
-5.797112	lewd
-4.145184	liberal	-0.1202773
-5.299247	liberals
-4.106569	library	-0.2616209
-5.078379	lid	-0.1505457
-4.664312	lids	-0.148252
-3.467034	lie	-0.484329
-2.970601	life	-0.5757304
-5.797112	lifeboats
-4.823761	lifelong	-0.3402197
-3.83922	lift	-0.384563
-4.007847	lifting	-0.2340673
-5.797112	ligament
-3.1285	light	-0.3911873
-5.797112	lightbulbs	-0.696648
-3.718062	lighted	-0.3103817
-4.210423	lighter	-0.1267828
-3.629552	lightly	-0.3753338
-3.765915	lights	-0.3301535
-2.60013	like	-0.7380836
-3.605588	liked	-0.5699907
-3.674962	likely	-0.5688639
-3.9154	likes	-0.5087314
-3.801023	likewise	-0.1189812
-4.316171	lily	-0.2370217
-4.210423	limit	-0.3566782
-4.16586	limited	-0.2468814
-4.287224	lincoln	-0.109898
-3.434398	line	-0.4028864
-3.674962	lines	-0.3708225
-4.054409	lion	-0.2353992
-4.260086	lip	-0.2673913
-3.801023	lips	-0.3829777
-4.456253	liquid	-0.08655117
-5.299247	liquids
-4.145184	liquor	-0.1465512
-4.088477	list	-0.4582314
-4.932672	listed	-0.5480824
-5.078379	lists	-0.2286807
-3.870248	literally	-0.1433804
-4.125447	literary	-0.1061402
-3.9154	literature	-0.3233268
-5.402909	lithographs	-0.517173
-4.932672	litter	-0.1207449
-2.881737	little	-0.2651078
-3.434398	live	-0.4873828
-3.493228	lived	-0.4141089
-3.892237	lively	-0.2508119
-3.540735	lives	-0.3775707
-5.797112	livestock
-3.407725	living	-0.3431835
-4.02282	loaded	-0.1713567
-4.287224	loads	-0.3652571
-5.402909	lobes
-4.316171	local	-0.1252758
-4.547941	locate	-0.1568108
-4.932672	location	-0.1241693
-3.859657	lock	-0.3565975
-3.654917	locked	-0.4821217
-4.106569	lodge	-0.2921916
-4.456253	logical	-0.06791228
-4.602241	logically	-0.07841183
-4.499681	logs	-0.1448581
-4.664312	lone	-0.1631782
-4.18757	loneliness	-0.2636284
-2.946943	long	-0.5159139
-5.797112	long-term
-4.260086	longed	-0.7407517
-3.493228	longer	-0.2529762
-5.402909	longitudes	-0.08198199
-3.029848	look	-0.6529831
-3.025228	looked	-0.7101084
-2.965232	looking	-0.646843
-3.488751	looks	-0.3507375
-5.299247	looms
-3.688859	loose	-0.2953854
-3.703215	lose	-0.5059924
-3.9154	loss	-0.4588047
-4.416775	losses	-0.09655344
-3.323953	lost	-0.4691026
-3.629552	lot	-0.6470048
-5.797112	lotions
-3.72568	lots	-0.8212318
-5.299247	loudest
-3.859657	loudly	-0.4232892
-5.797112	louse
-5.797112	lousiness
-3.073801	love	-0.5928897
-3.52593	loved	-0.66586
-3.642049	lovely	-0.2326586
-3.733434	loving	-0.1920492
-3.386097	low	-0.3732603
-3.757564	lower	-0.2506582
-3.9154	lowered	-0.4441805
-4.125447	loyal	-0.2277671
-5.797112	loyalties
-3.695977	luck	-0.3630965
-3.783114	lucky	-0.2388897
-5.078379	lullaby	-0.1613963
-4.499681	lumber	-0.06592384
-3.819701	lunch	-0.3549297
-4.456253	lungs	-0.188648
-4.380589	luxurious	-0.1537755
-4.18757	luxury	-0.264062
-3.493228	lying	-0.3954816
-5.797112	ma'am
-3.783114	machine	-0.2213271
-4.071109	machinery	-0.2126427
-4.088477	machines	-0.2979572
-3.545784	mad	-0.3831834
-2.88284	made	-0.6946357
-5.797112	madstones
-5.299247	magnetic
-5.078379	magnetism
-4.664312	magnificently	-0.07841183
-4.73676	magnified	-0.09936332
-5.797112	magpies
-4.932672	mahogany	-0.06429226
-5.797112	maids'	-0.7012194
-4.071109	mail	-0.2074882
-4.125447	main	-0.280035
-4.380589	maintain	-0.1324303
-4.664312	maintenance	-0.5874214
-4.125447	major	-0.2430568
-4.664312	majority	-0.1589264
-3.202463	make	-0.6938984
-3.422765	makes	-0.6114671
-3.379121	making	-0.3764138
-5.299247	maladies	-0.05290052
-4.932672	malaria
-4.260086	male	-0.2383533
-5.402909	mammals	-0.517173
-2.762201	man	-0.5017146
-5.299247	man's	-0.4236344
-3.965797	manage	-0.4154274
-3.859657	managed	-0.5611379
-4.210423	management	-0.4478064
-5.797112	mandates	-0.7012324
-5.402909	mango	-0.5196105
-4.380589	manhood	-0.2787686
-4.499681	manifest	-0.1333199
-3.454506	manner	-0.5445375
-5.402909	mannerism
-3.791976	manners	-0.4317818
-4.602241	manual	-0.2641918
-4.73676	manufacturer	-0.1667949
-5.402909	manufacturers	-0.08197332
-4.823761	manure	-0.1953385
-3.068692	many	-0.4950024
-4.316171	map	-0.2583916
-5.797112	mare's
-3.965797	margaret	-0.2437087
-5.078379	marine	-0.2734945
-5.797112	marine's
-3.530809	mark	-0.4268175
-4.932672	marketing	-0.06261747
-5.078379	markets	-0.2405776
-3.849318	marks	-0.3285361
-4.932672	marksmanship
-3.530809	marriage	-0.3683464
-3.48432	married	-0.4532989
-5.797112	marshmallows	-0.6989325
-4.125447	marvel	-0.3217079
-5.299247	marvelously
-4.316171	mask	-0.3409563
-4.73676	masks	-0.2154085
-5.299247	masonry
-4.932672	masquerade	-0.3767214
-3.952639	mass	-0.3445887
-5.299247	massage
-4.499681	massive	-0.04163366
-3.202463	master	-0.3764322
-5.797112	master's
-4.602241	masterful	-0.1829259
-4.416775	matched	-0.2193919
-4.932672	matching	-0.1257922
-3.801023	mate	-0.2881052
-3.881103	material	-0.1904652
-4.416775	materials	-0.1358604
-4.125447	mates	-0.2942813
-4.73676	mathematics	-0.1415305
-5.402909	mathews	-0.08197766
-3.422765	matter	-0.5631057
-3.497752	matters	-0.3825133
-5.078379	mattresses
-5.078379	maturity	-0.1117863
-5.797112	maximal
-5.402909	maximum
-2.862361	may	-0.6804425
-5.797112	mayan	-0.7012368
-3.594084	maybe	-0.5060897
-5.402909	mayonnaise
-2.559497	me	-0.6809451
-4.316171	meadow	-0.2625661
-4.038327	meals	-0.2949342
-5.797112	mealynosed
-3.396776	mean	-0.465143
-3.654917	meaning	-0.404038
-5.797112	meaningful
-4.73676	meanness	-0.1773434
-3.389628	means	-0.3611634
-3.41518	meant	-0.5451391
-4.16586	meanwhile	-0.2569777
-3.849318	measure	-0.2805922
-4.088477	measured	-0.1818762
-4.73676	measurement	-0.08432842
-3.588444	meat	-0.3643489
-5.299247	meats
-5.078379	mechanic
-4.347187	mechanical	-0.03373969
-4.664312	mechanism	-0.1358604
-5.797112	media
-5.797112	median	-0.1831321
-4.260086	medical	-0.2668064
-3.783114	medicine	-0.2829403
-5.299247	medieval
-5.299247	mediocrity	-0.4236301
-3.617405	meet	-0.5854606
-3.599798	meeting	-0.3057137
-4.18757	meetings	-0.06777541
-3.757564	melancholy	-0.1428673
-5.402909	melodramatic
-4.499681	melody	-0.1023291
-4.210423	melted	-0.199339
-4.234545	member	-0.6969697
-4.054409	members	-0.4667928
-5.299247	membership
-5.797112	memo
-3.870248	memory	-0.4633145
-2.889513	men	-0.4133527
-4.071109	mental	-0.05528723
-5.299247	mentality
-3.83922	mention	-0.3852157
-5.797112	meow
-4.823761	mercenary
-4.547941	mercilessly	-0.4652859
-3.939868	mere	-0.1129719
-3.506943	merely	-0.1533731
-5.797112	merger
-3.979366	merit	-0.3555555
-3.952639	merrily	-0.4558792
-4.316171	mess	-0.326258
-3.9154	message	-0.3446465
-5.078379	messy
-3.57738	met	-0.4902175
-4.287224	metal	-0.3241718
-4.73676	metallic	-0.08784638
-4.038327	method	-0.2621393
-4.16586	methods	-0.2837189
-4.499681	mettle	-0.2749946
-3.765915	michael	-0.2774062
-5.797112	micrometeorite
-5.797112	micrometeorites
-5.402909	microorganisms	-0.517173
-5.797112	microscopically
-5.797112	midair
-3.819701	midnight	-0.3615097
-2.958611	might	-0.6302497
-3.688859	mighty	-0.1209529
-3.881103	mike	-0.3153045
-3.979366	mile	-0.257005
-3.561295	miles	-0.3990585
-4.260086	military	-0.06478124
-3.718062	milk	-0.3101676
-5.402909	millionaires
-3.311931	mind	-0.4654269
-3.927461	minded	-0.2185202
-4.038327	minds	-0.244049
-3.154524	mine	-0.5267963
-4.380589	mining	-0.2203666
-4.071109	minister	-0.1574135
-4.499681	minor	-0.1552097
-5.078379	minority	-0.2033506
-3.952639	minute	-0.4078799
-3.819701	minutes	-0.4059218
-4.499681	miraculous
-5.299247	miraculously
-5.299247	mirage
-4.456253	mirror	-0.2161601
-4.499681	mirrors	-0.2191029
-3.688859	miserable	-0.1749056
-3.783114	misery	-0.3925506
-4.547941	mishap	-0.3233246
-5.402909	misinterpret
-5.299247	misleading
-5.797112	misperceives
-4.602241	misplaced	-0.4587443
-5.797112	misprint	-0.7012064
-3.223709	miss	-0.5684085
-3.849318	mistaken	-0.4857582
-3.83922	mixed	-0.3888652
-4.602241	mixing	-0.04715269
-5.078379	mobile
-4.416775	mock	-0.2248304
-5.402909	modeled	-0.08197477
-5.402909	modeling	-0.5205109
-4.823761	models	-0.1642559
-3.939868	modern	-0.08177464
-5.797112	modernization
-4.038327	modest	-0.1990365
-4.210423	modesty	-0.2006421
-4.932672	modified
-5.797112	modular	-0.1831311
-4.456253	moist	-0.1290575
-4.73676	moistened	-0.2710173
-4.547941	moisture	-0.2471092
-4.823761	mold	-0.3075243
-5.797112	mollusks
-5.402909	mom	-0.517173
-3.535744	moment	-0.4480214
-4.499681	momentary	-0.1480081
-3.783114	moments	-0.2773706
-5.797112	momma
-3.993373	monday	-0.5791885
-3.186628	money	-0.5257964
-5.797112	monitored
-4.16586	monkey	-0.2528319
-5.797112	monkey-gland
-5.402909	monopolize
-4.088477	monstrous	-0.1280532
-3.939868	month	-0.3267964
-3.72568	months	-0.3898802
-3.849318	moon	-0.320761
-4.125447	moonlight	-0.2478814
-4.823761	mopped	-0.07236292
-3.952639	moral	-0.1252717
-5.402909	morale
-2.667892	more	-0.4037191
-3.939868	moreover	-0.3151485
-5.402909	morgue
-3.430486	morning	-0.5296589
-5.797112	morphological
-4.73676	morrow	-0.3205715
-4.499681	mosquitoes	-0.3279075
-4.547941	moss	-0.1085898
-3.109491	most	-0.3587911
-3.859657	mostly	-0.08372846
-5.797112	motel
-4.499681	moth	-0.365454
-2.987121	mother	-0.4520434
-5.797112	mother's	-0.1831321
-3.965797	mothers	-0.2192745
-5.797112	mothers-in-law
-4.664312	motioning	-0.1635482
-5.797112	motivates
-4.499681	motor	-0.2213173
-5.797112	motorists
-4.02282	mount	-0.1874759
-3.892237	mountain	-0.2342128
-5.402909	mountainside
-4.547941	mounting
-4.16586	mournfully	-0.3738596
-4.088477	mouse	-0.2851625
-3.718062	mouth	-0.3969586
-5.078379	mouthful	-0.1558905
-3.556063	move	-0.3412937
-3.28049	moved	-0.4598723
-3.765915	movement	-0.3533368
-4.071109	moves	-0.149012
-5.299247	movie
-4.823761	movies	-0.6416624
-3.48432	moving	-0.2516952
-5.797112	mrs.
-2.924508	much	-0.4794636
-5.797112	mucus
-5.797112	muddleheaded
-4.380589	muddy	-0.08859577
-5.797112	mudwagon
-4.547941	muffled	-0.1072989
-4.932672	mugs
-5.299247	multiple	-0.05290052
-3.710575	murder	-0.3339612
-4.234545	murderer	-0.3122806
-5.299247	murky	-0.4236941
-3.829351	murmured	-0.3311366
-4.73676	muscle	-0.3140929
-4.380589	muscles	-0.1997638
-4.416775	muscular	-0.05814115
-4.380589	museum	-0.366156
-3.582877	music	-0.348199
-4.16586	musical	-0.1613655
-4.823761	musicians	-0.1512031
-4.823761	muskrat	-0.3035922
-2.836807	must	-0.77013
-4.547941	mustache	-0.2971744
-4.416775	mustard	-0.1753677
-2.387357	my	-0.6518394
-5.797112	myopia	-0.7012295
-2.752284	myself	-0.5735167
-3.870248	mysterious	-0.1181661
-3.791976	mystery	-0.4842046
-5.797112	nagging
-4.380589	nailed	-0.1506734
-4.16586	nails	-0.2712255
-4.932672	naive	-0.3095748
-3.903664	naked	-0.1678198
-3.386097	name	-0.5404156
-3.859657	named	-0.2208113
-3.642049	names	-0.3595373
-5.797112	nan's	-0.7012358
-3.849318	narrow	-0.2189871
-5.078379	narrower
-4.125447	nasty	-0.09667666
-5.078379	nathan
-4.316171	national	-0.1186098
-3.550894	natural	-0.3025551
-3.566591	naturally	-0.1601118
-3.462818	nature	-0.4633836
-4.823761	navigate	-0.07153073
-3.120796	near	-0.6740431
-5.797112	near-at-hand
-5.078379	nearby
-3.530809	nearer	-0.4445267
-4.088477	nearest	-0.09282614
-4.73676	nearing	-0.1507713
-3.311931	nearly	-0.2816088
-4.088477	neat	-0.2335275
-4.234545	necessarily	-0.1112021
-3.594084	necessary	-0.6117651
-5.797112	necessitates
-3.927461	necessity	-0.3506459
-4.106569	neck	-0.3336691
-4.416775	necklace	-0.3663093
-5.299247	nectar	-0.8905051
-3.362155	need	-0.5792581
-3.695977	needed	-0.368825
-4.380589	needle	-0.3340884
-5.797112	needle-sharp
-4.287224	needless	-0.4952713
-3.674962	needs	-0.2247203
-4.16586	neglect	-0.06193636
-5.078379	negligent
-5.078379	negligible
-5.299247	negotiations
-3.253757	neither	-0.3092834
-5.797112	neoclassic	-0.7012107
-4.106569	nerves	-0.3432554
-5.797112	nested
-5.299247	nevada	-0.5683255
-5.797112	nevada's	-0.7012358
-2.919675	never	-0.5344957
-3.718062	nevertheless	-0.4401721
-3.251172	new	-0.3027459
-3.545784	news	-0.4615955
-4.145184	newspaper	-0.2221964
-3.070389	next	-0.6075638
-3.571952	nice	-0.2971522
-4.088477	nicely	-0.2770663
-3.175661	night	-0.6090948
-5.299247	nightly	-0.1632667
-4.664312	nightmares	-0.1241693
-3.733434	nights	-0.2289483
-3.561295	nine	-0.3174858
-5.402909	nip
-2.543544	no	-0.499187
-3.228575	nobody	-0.4714408
-5.797112	nobody's
-3.661496	nodded	-0.4320526
-3.791976	noise	-0.3013232
-4.316171	noisy	-0.1706159
-5.797112	non-nonsense
-5.797112	non-supervisory	-0.1831263
-3.140318	none	-0.6494765
-5.797112	nonprofit	-0.6342885
-3.733434	nonsense	-0.3246354
-5.797112	nonsystematic
-2.908996	nor	-0.3207804
-4.380589	nora	-0.1550792
-5.797112	nora's	-0.701192
-4.145184	normal	-0.1395785
-3.881103	north	-0.325875
-4.932672	northeast	-0.05397969
-4.823761	northern
-5.402909	northerners
-4.932672	norwegian	-0.2032997
-3.829351	nose	-0.3398168
-2.593844	not	-0.482298
-3.511612	note	-0.4592081
-4.02282	noted	-0.2479641
-3.710575	notes	-0.3208349
-4.18757	nothin	-0.241392
-2.86131	nothing	-0.7331646
-3.571952	notice	-0.4718275
-4.499681	notices	-0.2994887
-4.932672	notoriety	-0.3091337
-4.007847	novel	-0.2549802
-4.73676	novelists	-0.1241693
-4.456253	novelty	-0.1694358
-2.460966	now	-0.6174601
-3.810261	nowadays	-0.3708295
-3.765915	nowhere	-0.4423478
-5.797112	nuclear	-0.1831306
-5.078379	nucleus
-4.316171	numb	-0.2277067
-3.535744	number	-0.5265086
-5.299247	numbering
-4.932672	numbness
-4.210423	numerous	-0.183019
-4.416775	nut	-0.1462581
-5.797112	nutrients
-5.797112	nutrition
-4.316171	nuts	-0.2433211
-5.797112	o'	-0.1831306
-5.797112	o'clock
-4.038327	oak	-0.2328404
-4.932672	oasis	-0.3655163
-4.823761	oatmeal	-0.1415305
-4.380589	oats	-0.2054485
-3.965797	obey	-0.5150928
-4.823761	obeying	-0.05312543
-3.545784	object	-0.5774094
-4.664312	objective	-0.09936332
-5.797112	objectives
-3.881103	objects	-0.2733631
-5.402909	observance
-4.02282	observe	-0.2612702
-5.078379	observers	-0.03905097
-5.299247	obsession
-5.797112	obsolescent
-4.260086	obstacles	-0.1148618
-4.316171	obtain	-0.179413
-4.088477	obtained	-0.2167965
-4.664312	obtaining	-0.134228
-4.007847	obvious	-0.3402826
-4.260086	obviously	-0.01685982
-3.819701	occasionally	-0.1393131
-3.635756	occupied	-0.3259511
-4.054409	occur	-0.5708041
-3.623436	occurred	-0.719386
-4.287224	occurs	-0.6205567
-4.234545	ocean	-0.29624
-5.797112	ocean's	-0.701189
-5.797112	oceanographic
-3.681855	odd	-0.1841699
-4.234545	odds	-0.3567765
-5.797112	odds-on
-4.416775	odor	-0.1934712
-2.09894	of	-0.7029256
-2.85817	off	-0.6103289
-4.260086	offensive	-0.3421006
-3.688859	offer	-0.4336798
-3.617405	offered	-0.5617138
-3.965797	offering	-0.1992787
-3.668177	office	-0.3725998
-3.859657	officer	-0.2754706
-3.903664	officers	-0.2887364
-4.347187	offices	-0.1397523
-4.145184	official	-0.1535653
-4.932672	officials
-3.339464	often	-0.2782332
-5.299247	ogress
-3.233496	oh	-0.4991523
-3.939868	oil	-0.2746308
-5.797112	oil-field
-5.797112	oils
-5.078379	oily	-0.3088442
-4.932672	ointment	-0.2732324
-2.963899	old	-0.4699196
-5.797112	old-timers
-3.710575	older	-0.4641412
-4.456253	ole	-0.09217937
-4.664312	olive
-4.316171	omitted	-0.2788349
-5.299247	omitting
-2.276258	on	-0.8382794
-2.870866	once	-0.6038311
-2.467278	one	-0.5166973
-5.078379	one's	-0.3572061
-5.797112	one-upmanship
-3.375674	ones	-0.3791785
-4.73676	onion	-0.0190789
-2.745795	only	-0.3159091
-4.260086	onto	-0.2700944
-5.299247	oozed	-0.356019
-5.402909	opaque	-0.4191063
-3.200165	open	-0.516368
-3.333193	opened	-0.7776142
-3.617405	opening	-0.407155
-4.071109	opens	-0.1428953
-4.456253	opera	-0.2965663
-4.823761	operated	-0.02188764
-5.797112	operates	-0.6996091
-4.088477	operation	-0.4558772
-3.9154	opinions	-0.3143869
-4.380589	opium	-0.2278324
-3.765915	opportunity	-0.5001385
-4.823761	opposing	-0.1138626
-3.749371	opposite	-0.3248578
-4.416775	oppressive	-0.4177369
-5.797112	optical
-5.797112	optimal	-0.1831321
-5.078379	optimism	-0.216143
-2.368381	or	-0.3921599
-4.499681	orange	-0.2525085
-5.797112	oratorical
-4.664312	orchestra	-0.07074994
-3.418956	order	-0.5344369
-4.73676	ordering
-3.617405	orders	-0.4035237
-5.797112	organism
-5.402909	organist
-5.299247	organizations	-0.3717758
-4.456253	oriental	-0.03630198
-5.797112	oriented	-0.1831306
-4.602241	origin	-0.4612627
-4.071109	original	-0.2383268
-4.260086	originally	-0.07855894
-4.823761	originals	-0.5053667
-5.797112	orthodontic
-5.797112	orthodontist
-3.20943	other	-0.3259084
-3.339464	others	-0.3211535
-3.535744	otherwise	-0.4685893
-5.797112	otto's	-0.7011573
-3.35555	ought	-1.253678
-2.808004	our	-0.3112086
-3.404044	ourselves	-0.4024782
-2.542031	out	-0.8516863
-5.797112	out-of-doors
-5.797112	outage	-0.7011905
-4.664312	outcast	-0.4181221
-4.73676	outcome	-0.1252736
-4.456253	outdoors	-0.4448077
-4.499681	outer	-0.320331
-5.797112	outfielders
-4.125447	outfit	-0.2226499
-4.932672	outgrow	-0.0878661
-4.932672	outlaws	-0.2221615
-4.380589	outlook	-0.2788044
-5.402909	outpost	-0.08198246
-5.797112	outputs
-5.402909	outset
-3.19788	outside	-0.4953074
-5.797112	outstanding	-0.7012368
-4.316171	outward	-0.06902093
-5.299247	oval
-2.660553	over	-0.7588465
-5.078379	overalls	-0.1613963
-4.125447	overboard	-0.3619604
-4.260086	overcame	-0.4456
-5.402909	overcharged
-5.402909	overdue
-5.402909	overeating
-4.499681	overflowed	-0.2811229
-5.797112	overhangs
-4.18757	overhead	-0.2947566
-5.402909	overlap
-5.402909	overlapping
-5.402909	overloaded
-4.380589	overlooked	-0.248315
-5.797112	overly	-0.7011587
-4.602241	overnight	-0.2897951
-5.797112	overnighters
-5.797112	overplayed
-5.797112	overprotection
-5.797112	overriding
-5.797112	oversized	-0.1831311
-4.145184	overtake	-0.4230191
-4.823761	overthrow	-0.2222208
-5.797112	overweight	-0.701231
-5.299247	overwhelm	-0.3188808
-4.234545	overwhelmed	-0.4212069
-3.859657	own	-0.1469253
-4.054409	owner	-0.4333092
-4.456253	owns	-0.1873834
-4.547941	oyster	-0.3419473
-4.234545	oysters	-0.2629431
-3.749371	pa	-0.4787548
-3.892237	pace	-0.2595737
-3.965797	pack	-0.2271954
-4.547941	package	-0.2834481
-4.18757	packing	-0.1638288
-5.402909	padlock
-3.550894	paid	-0.4250314
-4.664312	pail	-0.1195913
-3.571952	pain	-0.4743533
-4.823761	paintings	-0.06033919
-3.83922	pair	-0.4952786
-4.456253	pairs	-0.5453202
-3.582877	pale	-0.4355886
-4.287224	palm	-0.4216257
-5.402909	palpably	-0.1632392
-5.402909	pam
-4.664312	pamphlets	-0.06491265
-4.456253	pan	-0.1400501
-5.797112	panelization
-4.260086	panic	-0.2773659
-5.299247	pansies
-5.797112	papaya	-0.7001586
-3.623436	paper	-0.3780599
-5.402909	papered	-0.08197332
-5.797112	paperweight
-5.299247	parades
-4.416775	paragraph	-0.2257639
-4.210423	parallel	-0.2194699
-4.932672	paralysis	-0.106264
-5.797112	paranoid	-0.699918
-3.870248	pardon	-0.4477601
-5.299247	parental
-4.287224	park	-0.290968
-5.402909	parking	-0.08196754
-4.932672	parrots	-0.106264
-3.184412	part	-0.664663
-5.797112	part-time
-3.783114	parted	-0.4494454
-5.402909	participants	-0.0819632
-5.299247	participate	-0.79333
-5.299247	participates
-3.681855	particular	-0.1835813
-3.661496	particularly	-0.1171047
-3.993373	parties	-0.2863426
-3.849318	partly	-0.1713762
-3.939868	partner	-0.3103256
-3.74133	parts	-0.4695389
-3.48432	pass	-0.4128302
-3.180015	passed	-0.5674071
-3.710575	passing	-0.2095177
-4.210423	passions	-0.358494
-4.287224	passive	-0.07567179
-3.389628	past	-0.4606254
-4.602241	paste	-0.148252
-4.602241	pastime	-0.2611659
-4.664312	pasture	-0.2989357
-3.703215	path	-0.2801163
-4.18757	pathetic	-0.06421113
-5.797112	pathological	-0.7012165
-3.870248	patient	-0.2812761
-4.02282	patiently	-0.3145903
-4.932672	patrons
-5.299247	patsy	-0.3262337
-5.402909	pattered
-4.416775	pattern	-0.1369371
-4.823761	patterns
-3.765915	pause	-0.5512556
-3.791976	paused	-0.6214684
-4.499681	paw	-0.1223722
-3.530809	pay	-0.478862
-4.932672	payments	-0.2729445
-4.234545	pays	-0.155742
-3.550894	peace	-0.5048156
-4.380589	peacefully	-0.2987588
-4.602241	peach	-0.1663101
-4.602241	peaches	-0.4652859
-5.402909	peanut
-4.125447	pearls	-0.2967699
-4.416775	peas	-0.2008367
-4.664312	peck	-0.1016935
-3.791976	peculiar	-0.1629751
-4.823761	pedestal
-4.823761	peeling	-0.2442824
-4.347187	peered	-0.2236697
-4.823761	penalty	-0.3285025
-5.402909	pendulum
-4.316171	penetrated	-0.1137629
-5.299247	penguins	-0.4235361
-5.797112	penicillin
-4.602241	pension	-0.2066931
-2.912527	people	-0.441153
-4.347187	pepper	-0.2330012
-5.797112	peppered
-3.979366	per	-0.7403375
-5.797112	per-year
-4.316171	perception	-0.2403184
-5.402909	perennial	-0.1831198
-3.661496	perfect	-0.2551231
-3.422765	perfectly	-0.3494246
-4.088477	performance	-0.3419122
-4.823761	performances
-4.823761	performers
-4.499681	perfume	-0.3769157
-2.904332	perhaps	-0.6160781
-4.547941	perils	-0.05542542
-3.939868	period	-0.3770195
-5.797112	periodical	-0.1831311
-5.797112	periodically
-4.73676	periods	-0.1415305
-4.234545	permanent	-0.1528481
-3.965797	permit	-0.5109949
-4.602241	perpendicular	-0.2995197
-4.823761	persistently
-5.797112	persisting
-3.386097	person	-0.3914793
-3.810261	personal	-0.1316901
-4.02282	personality	-0.3059766
-5.797112	personalized
-5.402909	personnel	-0.08197188
-3.74133	persons	-0.2313488
-3.979366	persuaded	-0.2832384
-4.73676	persuasively	-0.517173
-4.547941	pert	-0.2611659
-5.299247	pertinent
-5.402909	pervasive	-0.3262337
-4.73676	perverse
-4.932672	pessimism	-0.1613963
-5.299247	pests
